{"learner":{"attributes":{"scikit_learn":"{\"_estimator_type\": \"classifier\"}"},"feature_names":["open","high","low","close","tick_volume","sma_14","rsi_14"],"feature_types":["float","float","float","float","float","float","float"],"gradient_booster":{"model":{"gbtree_model_param":{"num_parallel_tree":"1","num_trees":"100"},"iteration_indptr":[0,1,2,3,4,5,6,7,8,9,10,11,12,13,14,15,16,17,18,19,20,21,22,23,24,25,26,27,28,29,30,31,32,33,34,35,36,37,38,39,40,41,42,43,44,45,46,47,48,49,50,51,52,53,54,55,56,57,58,59,60,61,62,63,64,65,66,67,68,69,70,71,72,73,74,75,76,77,78,79,80,81,82,83,84,85,86,87,88,89,90,91,92,93,94,95,96,97,98,99,100],"tree_info":[0,0,0,0,0,0,0,0,0,0,0,0,0,0,0,0,0,0,0,0,0,0,0,0,0,0,0,0,0,0,0,0,0,0,0,0,0,0,0,0,0,0,0,0,0,0,0,0,0,0,0,0,0,0,0,0,0,0,0,0,0,0,0,0,0,0,0,0,0,0,0,0,0,0,0,0,0,0,0,0,0,0,0,0,0,0,0,0,0,0,0,0,0,0,0,0,0,0,0,0],"trees":[{"base_weights":[-1.06953586E-7,1.793777E-2,-1.0944262E-1,7.5678386E-2,2.6533697E-3,-7.93492E-1,-1.0531527E-1,3.421455E-1,6.290439E-2,1.0129974E-1,-2.1008055E-3,-2.3901965E-1,-1.1845484E0,5.5028476E-2,-1.20154284E-1,4.5319688E-1,-5.154845E-2,-3.7830874E-1,6.7031056E-2,-1.1373356E-1,1.4436778E-1,-3.2919694E-2,1.9944733E-2,1.9260834E-1,-6.969599E-1,-4.9488226E-1,-2.7795717E-1,1.7590982E-1,-2.021034E-1,-3.494679E-1,-1.0794399E-1,6.854679E-1,2.6937702E-1,-4.3461543E-1,2.2120927E-1,-3.50045E-2,-8.4279305E-1,5.265477E-2,1.62454E-1,2.6140878E-1,-2.5393808E-1,5.315529E-2,2.9500446E-1,-2.5321137E-2,-1.8539147E-1,2.0597683E-1,1.4285874E-2,-3.3959526E-1,-2.7795717E-1,-2.0623629E-1,4.745786E-2,3.1252646E-1,-9.9589035E-2,-7.5790715E-1,-1.4953457E-1,-3.6213946E-2,-5.035228E-1,6.0447305E-1,-1.11874156E-1,2.2452743E-1,-4.3835275E-2,-4.916001E-2,1.2007755E-1,-1.9951533E-1,1.9547423E-2,-9.562287E-2,1.8134192E-1,-1.2048584E-1,2.2563282E-1,-1.6421528E-1,-3.8346496E-1,1.9409109E-2,-2.361054E-2,4.350853E-2,2.2716404E-1,-2.2737215E-1,1.5569977E-1,-3.0965236E-1,-4.802381E-2,1.02992775E-2,1.6138726E-1,2.118891E-1,6.9481574E-2,-4.2320794E-1,-7.29221E-3,9.118397E-2,-7.5082645E-2,4.425685E-2,2.0372985E-1,-1.8591256E-1,4.7718636E-3,-2.467436E-1,1.1333107E-1,1.1195638E-1,-2.1258757E-2,-6.0909037E-2,1.7522858E-1,-3.084455E-1,-6.693822E-3,-1.3657404E-1,-3.669501E-4,-8.166906E-2,9.434658E-2,-1.216087E-1,-2.9196885E-1,-3.0750692E-1,3.13164E-1,-3.4952484E-2,6.617244E-2],"categories":[],"categories_nodes":[],"categories_segments":[],"categories_sizes":[],"default_left":[0,0,0,0,0,0,0,0,0,0,0,0,0,0,0,0,0,0,0,0,0,0,0,0,0,0,0,0,0,0,0,0,0,0,0,0,0,0,0,0,0,0,0,0,0,0,0,0,0,0,0,0,0,0,0,0,0,0,0,0,0,0,0,0,0,0,0,0,0,0,0,0,0,0,0,0,0,0,0,0,0,0,0,0,0,0,0,0,0,0,0,0,0,0,0,0,0,0,0,0,0,0,0,0,0,0,0,0,0],"id":0,"left_children":[1,3,5,7,9,11,13,15,17,19,21,23,25,27,29,31,33,35,37,39,41,43,45,-1,47,-1,49,51,53,55,57,59,61,63,65,67,69,71,73,75,77,79,81,83,85,87,89,-1,91,-1,-1,93,95,97,99,101,103,105,107,-1,-1,-1,-1,-1,-1,-1,-1,-1,-1,-1,-1,-1,-1,-1,-1,-1,-1,-1,-1,-1,-1,-1,-1,-1,-1,-1,-1,-1,-1,-1,-1,-1,-1,-1,-1,-1,-1,-1,-1,-1,-1,-1,-1,-1,-1,-1,-1,-1,-1],"loss_changes":[3.4049164E1,1.3150919E1,6.812111E0,1.0594822E1,5.526546E0,2.859892E0,5.7858257E0,6.25136E0,5.446558E0,5.034184E0,7.6392713E0,3.3717322E0,3.018775E0,6.45187E0,6.187992E0,4.563656E0,3.4646373E0,4.3940234E0,4.03934E0,4.851041E0,6.1926336E0,5.4276805E0,6.8976827E0,0E0,6.4204E-1,0E0,8.2297397E-1,5.336223E0,1.8289998E0,5.384845E0,5.982502E0,2.6476688E0,3.6792116E0,1.626353E0,4.226759E0,5.2061176E0,8.11224E-1,4.0638514E0,3.8893185E0,7.0209455E0,4.7088156E0,2.5610468E0,4.274269E0,6.240035E0,7.138061E0,5.2493973E0,6.5460124E0,0E0,1.7385683E0,0E0,0E0,2.2234745E0,3.4767017E0,1.070097E0,2.8096046E0,3.229872E0,3.0623093E0,9.48048E0,3.263712E0,0E0,0E0,0E0,0E0,0E0,0E0,0E0,0E0,0E0,0E0,0E0,0E0,0E0,0E0,0E0,0E0,0E0,0E0,0E0,0E0,0E0,0E0,0E0,0E0,0E0,0E0,0E0,0E0,0E0,0E0,0E0,0E0,0E0,0E0,0E0,0E0,0E0,0E0,0E0,0E0,0E0,0E0,0E0,0E0,0E0,0E0,0E0,0E0,0E0,0E0],"parents":[2147483647,0,0,1,1,2,2,3,3,4,4,5,5,6,6,7,7,8,8,9,9,10,10,11,11,12,12,13,13,14,14,15,15,16,16,17,17,18,18,19,19,20,20,21,21,22,22,24,24,26,26,27,27,28,28,29,29,30,30,31,31,32,32,33,33,34,34,35,35,36,36,37,37,38,38,39,39,40,40,41,41,42,42,43,43,44,44,45,45,46,46,48,48,51,51,52,52,53,53,54,54,55,55,56,56,57,57,58,58],"right_children":[2,4,6,8,10,12,14,16,18,20,22,24,26,28,30,32,34,36,38,40,42,44,46,-1,48,-1,50,52,54,56,58,60,62,64,66,68,70,72,74,76,78,80,82,84,86,88,90,-1,92,-1,-1,94,96,98,100,102,104,106,108,-1,-1,-1,-1,-1,-1,-1,-1,-1,-1,-1,-1,-1,-1,-1,-1,-1,-1,-1,-1,-1,-1,-1,-1,-1,-1,-1,-1,-1,-1,-1,-1,-1,-1,-1,-1,-1,-1,-1,-1,-1,-1,-1,-1,-1,-1,-1,-1,-1,-1],"split_conditions":[6.344656E1,4.0395073E1,1.999452E3,2.022601E3,2.02384E3,6.5669365E1,2.031008E3,5.33E2,2.022612E3,4.429625E1,2.35468E3,2.51E2,3.04E2,3.54E2,2.34E2,3.588012E1,2.7773287E1,5E2,3.9291992E1,2.56E2,3.13E2,6.1792747E1,2.359258E3,1.9260834E-1,2.63E2,-4.9488226E-1,6.73808E1,6.916296E1,3.61E2,1.76E2,2.4E2,2.020742E3,2.51E2,2.010733E3,6.24E2,4.08E2,3.559446E1,2.671803E3,2.7385237E3,1.51E2,2.75E2,2.0232847E3,4.5973663E1,2.022612E3,2.0296273E3,7.48E2,2.35869E3,-3.3959526E-1,1.9923674E3,-2.0623629E-1,4.745786E-2,2.029031E3,2.0284249E3,2.027774E3,2.023977E3,6.618107E1,7.092817E1,2.055347E3,2.609E3,2.2452743E-1,-4.3835275E-2,-4.916001E-2,1.2007755E-1,-1.9951533E-1,1.9547423E-2,-9.562287E-2,1.8134192E-1,-1.2048584E-1,2.2563282E-1,-1.6421528E-1,-3.8346496E-1,1.9409109E-2,-2.361054E-2,4.350853E-2,2.2716404E-1,-2.2737215E-1,1.5569977E-1,-3.0965236E-1,-4.802381E-2,1.02992775E-2,1.6138726E-1,2.118891E-1,6.9481574E-2,-4.2320794E-1,-7.29221E-3,9.118397E-2,-7.5082645E-2,4.425685E-2,2.0372985E-1,-1.8591256E-1,4.7718636E-3,-2.467436E-1,1.1333107E-1,1.1195638E-1,-2.1258757E-2,-6.0909037E-2,1.7522858E-1,-3.084455E-1,-6.693822E-3,-1.3657404E-1,-3.669501E-4,-8.166906E-2,9.434658E-2,-1.216087E-1,-2.9196885E-1,-3.0750692E-1,3.13164E-1,-3.4952484E-2,6.617244E-2],"split_indices":[6,6,1,5,1,6,0,4,0,6,1,4,4,4,4,6,6,4,6,4,4,6,1,0,4,0,6,6,4,4,4,3,4,2,4,4,6,0,5,4,4,5,6,0,5,4,3,0,5,0,0,0,5,0,3,6,6,0,4,0,0,0,0,0,0,0,0,0,0,0,0,0,0,0,0,0,0,0,0,0,0,0,0,0,0,0,0,0,0,0,0,0,0,0,0,0,0,0,0,0,0,0,0,0,0,0,0,0,0],"split_type":[0,0,0,0,0,0,0,0,0,0,0,0,0,0,0,0,0,0,0,0,0,0,0,0,0,0,0,0,0,0,0,0,0,0,0,0,0,0,0,0,0,0,0,0,0,0,0,0,0,0,0,0,0,0,0,0,0,0,0,0,0,0,0,0,0,0,0,0,0,0,0,0,0,0,0,0,0,0,0,0,0,0,0,0,0,0,0,0,0,0,0,0,0,0,0,0,0,0,0,0,0,0,0,0,0,0,0,0,0],"sum_hessian":[1.7342004E4,1.4900599E4,2.441406E3,3.117922E3,1.1782677E4,1.3495335E1,2.4279106E3,1.414511E2,2.976471E3,5.4081305E2,1.1241863E4,6.24784E0,7.2474947E0,2.0542899E2,2.2224817E3,1.102119E2,3.12392E1,2.6740755E1,2.9497302E3,8.9968895E1,4.5084415E2,4.6878794E3,6.5539844E3,1.9993088E0,4.2485313E0,4.2485313E0,2.9989634E0,1.3995161E2,6.547736E1,1.1096164E2,2.11152E3,4.7483585E1,6.2728313E1,1.2745594E1,1.8493607E1,1.5994471E1,1.07462845E1,2.5648633E3,3.8486694E2,2.424162E1,6.572728E1,2.8165262E2,1.6919151E2,4.466456E3,2.2142345E2,1.9243347E2,6.361551E3,1.249568E0,2.9989634E0,1.249568E0,1.7493953E0,9.346769E1,4.648393E1,4.498445E0,6.097892E1,3.6987213E1,7.397443E1,1.07462845E1,2.1007737E3,4.4234707E1,3.2488768E0,1.4494989E1,4.8233326E1,8.497063E0,4.2485313E0,7.7473216E0,1.07462845E1,1.1246112E1,4.7483582E0,7.7473216E0,2.9989634E0,2.3499375E3,2.149257E2,3.7512033E2,9.746631E0,4.498445E0,1.9743176E1,5.9979267E0,5.972935E1,2.721559E2,9.4967165E0,2.1242657E1,1.4794885E2,2.2492225E0,4.4642065E3,2.5491188E1,1.9593227E2,1.7244038E2,1.9993088E1,1.524473E1,6.346306E3,1.4994817E0,1.4994817E0,8.072209E1,1.2745594E1,4.0985832E1,5.4980993E0,2.9989634E0,1.4994817E0,1.9243347E1,4.1735573E1,2.2242311E1,1.4744903E1,6.2728313E1,1.1246112E1,1.9993088E0,8.746976E0,2.0725334E3,2.8240236E1],"tree_param":{"num_deleted":"0","num_feature":"7","num_nodes":"109","size_leaf_vector":"1"}},{"base_weights":[-9.789171E-5,1.153956E-2,-8.441298E-2,5.305639E-2,8.656543E-4,-7.6740265E-2,-3.0954427E-1,2.8583154E-1,4.5095723E-2,2.0001782E-3,-2.516153E-1,-6.702822E-1,-7.377294E-2,-4.507469E-1,4.5580128E-1,3.7756738E-1,-4.1231006E-1,-1.2269502E0,4.7708716E-2,-3.1847223E-3,7.435909E-2,-3.6728328E-1,3.5072473E-1,8.3004035E-2,-9.3796813E-1,5.859042E-2,-8.604428E-2,-3.6221087E-1,-3.5055834E-1,8.9842653E-1,-1.2405731E-1,2.9172444E-1,8.1756985E-1,2.1225126E-1,-7.891087E-1,-4.603725E-1,-1.4117232E-1,4.113527E-2,1.9209032E-1,9.938556E-4,-9.243348E-2,6.410507E-2,7.082706E-1,5.6663924E-1,-4.6972457E-1,5.545075E-1,-1.2638731E-1,-3.9253765E-1,-2.350119E-1,1.6883345E-1,-8.646833E-2,-2.3755231E-1,-7.298653E-2,-5.4884475E-1,-1.3806766E-1,9.4544046E-2,1.0875685E0,1.9962817E-1,-4.9166673E-1,1.3658403E-1,-8.245096E-2,1.4068557E-1,4.4454798E-1,-3.8746156E-2,2.0225838E-1,-2.8651318E-1,-3.7567094E-2,1.8962612E-2,3.6026858E-4,1.3459222E-1,9.602699E-3,1.7250821E-2,-1.1728569E-3,-2.1410541E-1,-2.2264184E-2,4.1453473E-2,-4.0675877E-3,4.4264514E-2,2.988611E-1,-8.392507E-3,2.916955E-1,-9.796266E-2,-2.7294052E-1,6.478087E-2,3.5371837E-1,6.960232E-2,-1.5947893E-1,1.4218045E-2,1.4916474E-1,-1.23121545E-1,2.2720685E-2,-5.333094E-2,-1.6917899E-1,4.9540386E-2,-2.4604464E-2,2.3608873E-2,-2.0249447E-1,7.764963E-2,-1.2849465E-1,6.6294745E-2,4.0592813E-1,-2.4040191E-1,-2.0689782E-2],"categories":[],"categories_nodes":[],"categories_segments":[],"categories_sizes":[],"default_left":[0,0,0,0,0,0,0,0,0,0,0,0,0,0,0,0,0,0,0,0,0,0,0,0,0,0,0,0,0,0,0,0,0,0,0,0,0,0,0,0,0,0,0,0,0,0,0,0,0,0,0,0,0,0,0,0,0,0,0,0,0,0,0,0,0,0,0,0,0,0,0,0,0,0,0,0,0,0,0,0,0,0,0,0,0,0,0,0,0,0,0,0,0,0,0,0,0,0,0,0,0,0,0],"id":1,"left_children":[1,3,5,7,9,11,13,15,17,19,21,23,25,27,29,31,33,35,37,39,41,43,45,-1,47,49,51,53,-1,55,57,59,61,63,65,-1,-1,67,69,71,73,75,77,79,81,83,-1,-1,85,87,89,91,93,95,97,-1,99,-1,101,-1,-1,-1,-1,-1,-1,-1,-1,-1,-1,-1,-1,-1,-1,-1,-1,-1,-1,-1,-1,-1,-1,-1,-1,-1,-1,-1,-1,-1,-1,-1,-1,-1,-1,-1,-1,-1,-1,-1,-1,-1,-1,-1,-1],"loss_changes":[1.7012411E1,6.751439E0,3.6086035E0,5.7609577E0,3.4723556E0,3.5344057E0,7.659498E0,6.7425613E0,1.0076678E1,4.527544E0,3.9069293E0,2.7940693E0,3.2955914E0,3.3092833E0,2.996485E0,3.2147446E0,3.0909839E0,7.2421455E-1,2.8477097E0,4.19981E0,5.1995974E0,4.665192E0,1.6884356E0,0E0,1.7819829E0,2.7727869E0,3.6512823E0,2.1720777E0,0E0,3.7391186E-1,1.9943964E0,7.358076E0,2.6328363E0,9.485737E-1,7.573161E-1,0E0,0E0,2.5377817E0,5.3553233E0,2.981278E0,5.6481204E0,4.5762725E0,1.9107056E0,1.232889E0,2.3482494E0,1.3837392E0,0E0,0E0,6.757129E-1,3.897994E0,3.9791718E0,2.7620249E0,3.6869411E0,2.3474054E0,3.0772402E0,0E0,7.358279E-1,0E0,5.3308225E-1,0E0,0E0,0E0,0E0,0E0,0E0,0E0,0E0,0E0,0E0,0E0,0E0,0E0,0E0,0E0,0E0,0E0,0E0,0E0,0E0,0E0,0E0,0E0,0E0,0E0,0E0,0E0,0E0,0E0,0E0,0E0,0E0,0E0,0E0,0E0,0E0,0E0,0E0,0E0,0E0,0E0,0E0,0E0,0E0],"parents":[2147483647,0,0,1,1,2,2,3,3,4,4,5,5,6,6,7,7,8,8,9,9,10,10,11,11,12,12,13,13,14,14,15,15,16,16,17,17,18,18,19,19,20,20,21,21,22,22,24,24,25,25,26,26,27,27,29,29,30,30,31,31,32,32,33,33,34,34,37,37,38,38,39,39,40,40,41,41,42,42,43,43,44,44,45,45,48,48,49,49,50,50,51,51,52,52,53,53,54,54,56,56,58,58],"right_children":[2,4,6,8,10,12,14,16,18,20,22,24,26,28,30,32,34,36,38,40,42,44,46,-1,48,50,52,54,-1,56,58,60,62,64,66,-1,-1,68,70,72,74,76,78,80,82,84,-1,-1,86,88,90,92,94,96,98,-1,100,-1,102,-1,-1,-1,-1,-1,-1,-1,-1,-1,-1,-1,-1,-1,-1,-1,-1,-1,-1,-1,-1,-1,-1,-1,-1,-1,-1,-1,-1,-1,-1,-1,-1,-1,-1,-1,-1,-1,-1,-1,-1,-1,-1,-1,-1],"split_conditions":[6.45142E1,4.0395073E1,8.169016E1,2.018824E3,2.780753E3,1.999452E3,1.593E3,8.48E2,2.017808E3,2.689114E3,6.0002922E1,6.5669365E1,2.031008E3,1.297E3,2.406359E3,2.017151E3,2.0051945E3,2.019664E3,4.003979E1,1.198E3,1.968E3,4.2544346E1,7.8E2,8.3004035E-2,3.04E2,6.916296E1,2.67E2,6.38E2,-3.5055834E-1,2.334075E3,1.849E3,2.015469E3,3.8072163E1,2.5960539E1,1.657E3,-4.603725E-1,-1.4117232E-1,2.4954905E3,3.63E2,2.028315E3,4.0938435E1,2.7346636E3,4.87104E1,4.26E2,5.82E2,6.65E2,-1.2638731E-1,-3.9253765E-1,3.37E2,2.027207E3,2.023977E3,2.56E2,2.93E2,2.033333E3,8.26E2,9.4544046E-2,1.849E3,1.9962817E-1,2.609E3,1.3658403E-1,-8.245096E-2,1.4068557E-1,4.4454798E-1,-3.8746156E-2,2.0225838E-1,-2.8651318E-1,-3.7567094E-2,1.8962612E-2,3.6026858E-4,1.3459222E-1,9.602699E-3,1.7250821E-2,-1.1728569E-3,-2.1410541E-1,-2.2264184E-2,4.1453473E-2,-4.0675877E-3,4.4264514E-2,2.988611E-1,-8.392507E-3,2.916955E-1,-9.796266E-2,-2.7294052E-1,6.478087E-2,3.5371837E-1,6.960232E-2,-1.5947893E-1,1.4218045E-2,1.4916474E-1,-1.23121545E-1,2.2720685E-2,-5.333094E-2,-1.6917899E-1,4.9540386E-2,-2.4604464E-2,2.3608873E-2,-2.0249447E-1,7.764963E-2,-1.2849465E-1,6.6294745E-2,4.0592813E-1,-2.4040191E-1,-2.0689782E-2],"split_indices":[6,6,6,1,0,1,4,4,2,1,6,6,0,4,0,1,5,0,6,4,4,6,4,0,4,6,4,4,0,2,4,1,6,6,4,0,0,5,4,1,6,5,6,4,4,4,0,0,4,2,3,4,4,1,4,0,4,0,4,0,0,0,0,0,0,0,0,0,0,0,0,0,0,0,0,0,0,0,0,0,0,0,0,0,0,0,0,0,0,0,0,0,0,0,0,0,0,0,0,0,0,0,0],"split_type":[0,0,0,0,0,0,0,0,0,0,0,0,0,0,0,0,0,0,0,0,0,0,0,0,0,0,0,0,0,0,0,0,0,0,0,0,0,0,0,0,0,0,0,0,0,0,0,0,0,0,0,0,0,0,0,0,0,0,0,0,0,0,0,0,0,0,0,0,0,0,0,0,0,0,0,0,0,0,0,0,0,0,0,0,0,0,0,0,0,0,0,0,0,0,0,0,0,0,0,0,0,0,0],"sum_hessian":[1.7336156E4,1.5234326E4,2.1018298E3,3.1148704E3,1.2119456E4,2.0338547E3,6.797501E1,1.0184844E2,3.013022E3,1.2066229E4,5.3227562E1,8.998686E0,2.0248561E3,5.7734352E1,1.0240661E1,9.042569E1,1.1422755E1,5.2160335E0,3.007806E3,1.1260322E4,8.05906E2,4.49802E1,8.247357E0,1.9757385E0,7.0229473E0,1.7147606E2,1.85338E3,5.273436E1,4.999994E0,5.495996E0,4.7446647E0,7.705545E1,1.3370237E1,4.462557E0,6.960198E0,2.9765792E0,2.2394543E0,2.8780579E3,1.297481E2,1.0757645E4,5.0267816E2,7.9416095E2,1.174505E1,3.9982402E0,4.0981964E1,6.7479076E0,1.4994497E0,4.0349665E0,2.9879808E0,9.7337074E1,7.4138985E1,1.4569545E2,1.7076846E3,2.798439E1,2.474997E1,1.9986651E0,3.497331E0,1.2499985E0,3.4946663E0,5.9946445E1,1.7109007E1,9.887184E0,3.4830532E0,2.980323E0,1.482234E0,5.217531E0,1.742667E0,1.8531564E3,1.0249015E3,4.916017E1,8.058792E1,8.58073E2,9.899571E3,1.3234535E1,4.894436E2,4.060777E2,3.8808322E2,4.49802E0,7.24703E0,1.9991201E0,1.9991201E0,3.2235813E1,8.746151E0,5.248458E0,1.4994497E0,1.2451029E0,1.742878E0,7.189406E1,2.5443014E1,2.4226389E1,4.9912594E1,1.2444548E2,2.1249973E1,6.1749924E1,1.6459347E3,4.74646E0,2.323793E1,1.0499987E1,1.4249982E1,1.2499985E0,2.2473326E0,1.4999981E0,1.9946681E0],"tree_param":{"num_deleted":"0","num_feature":"7","num_nodes":"103","size_leaf_vector":"1"}},{"base_weights":[-7.7709505E-5,9.103862E-3,-5.6131028E-2,8.065612E-2,5.8695613E-3,-2.8371602E-1,-4.9320385E-2,-1.4906432E-1,1.020778E-1,-5.6747332E-2,1.5876114E-2,-3.2717878E-1,2.728064E-1,2.0593385E-1,-5.6885004E-2,6.871541E-1,-2.8395352E-1,1.08079456E-1,-8.048172E-1,1.619639E-2,-1.2593873E-1,2.1240301E-1,1.1119157E-2,-3.749277E-1,2.2651039E-1,-2.7248082E-1,4.01498E-1,-2.9881337E-1,-5.5406265E-2,1.3581893E-1,3.6072305E-1,-1.0845388E-2,-6.2650126E-1,5.2739304E-2,2.1458969E-1,-3.9380395E-1,5.233351E-2,8.225834E-2,-5.8293268E-2,-1.3955894E-1,1.543239E-1,1.806556E-1,5.6971294E-1,-7.096592E-2,1.6343901E-2,8.10043E-2,-5.112364E-1,9.902526E-2,-5.858078E-1,3.5602328E-1,2.8022182E-1,2.9067106E-3,-7.278791E-2,-8.759631E-2,1.0695825E-1,2.396718E-1,-2.8464114E-2,-2.3752317E-1,5.1609214E-2,2.7008798E-2,-5.0507948E-2,2.920695E-2,1.5197052E-1,1.014053E-2,1.0344322E-1,-2.9154647E-2,7.6019235E-2,-3.2550383E-2,-8.642841E-2,9.602825E-2,-8.8575885E-2,8.0221444E-2,1.6324427E-2,4.6084326E-2,2.6572305E-1,-6.980211E-3,-6.326177E-2,3.8730204E-2,3.7008703E-3,-1.7029566E-1,1.3239555E-1,-3.1335706E-1,-8.057162E-2,-5.118723E-2,2.1916308E-1,-2.5373936E-1,4.7840565E-2,4.7901038E-2,3.5470632E-1,-4.7624516E-3,1.7369792E-1,-4.523045E-2,-1.3399504E-2],"categories":[],"categories_nodes":[],"categories_segments":[],"categories_sizes":[],"default_left":[0,0,0,0,0,0,0,0,0,0,0,0,0,0,0,0,0,0,0,0,0,0,0,0,0,0,0,0,0,0,0,0,0,0,0,0,0,0,0,0,0,0,0,0,0,0,0,0,0,0,0,0,0,0,0,0,0,0,0,0,0,0,0,0,0,0,0,0,0,0,0,0,0,0,0,0,0,0,0,0,0,0,0,0,0,0,0,0,0,0,0,0,0],"id":2,"left_children":[1,3,5,7,9,11,13,15,17,19,21,23,-1,25,27,29,31,33,35,37,39,41,43,45,-1,47,49,-1,51,53,-1,55,57,59,61,-1,-1,63,65,67,69,71,73,75,77,79,81,83,85,-1,87,89,91,-1,-1,-1,-1,-1,-1,-1,-1,-1,-1,-1,-1,-1,-1,-1,-1,-1,-1,-1,-1,-1,-1,-1,-1,-1,-1,-1,-1,-1,-1,-1,-1,-1,-1,-1,-1,-1,-1,-1,-1],"loss_changes":[8.919774E0,3.4458883E0,3.7669854E0,3.1841564E0,8.929141E0,3.9619255E0,4.5873213E0,6.436687E0,3.2962584E0,9.912317E0,1.1484024E1,3.8444428E0,0E0,6.5110073E0,3.1421175E0,2.103215E0,4.517041E0,3.4464731E0,2.2157214E0,4.7129025E0,3.8686132E0,3.1903172E0,5.146484E0,4.185092E0,0E0,2.438363E0,4.331196E0,0E0,2.3311224E0,5.7447207E-1,0E0,1.9758683E0,2.9643736E0,3.2089982E0,6.805396E0,0E0,0E0,6.4446316E0,5.4825664E0,4.4049263E0,3.6108832E0,2.9213772E0,2.9181037E0,4.7873726E0,5.0958242E0,4.0388765E0,6.379668E0,1.8635347E0,2.3123734E0,0E0,4.5670223E0,5.7332563E0,3.87856E0,0E0,0E0,0E0,0E0,0E0,0E0,0E0,0E0,0E0,0E0,0E0,0E0,0E0,0E0,0E0,0E0,0E0,0E0,0E0,0E0,0E0,0E0,0E0,0E0,0E0,0E0,0E0,0E0,0E0,0E0,0E0,0E0,0E0,0E0,0E0,0E0,0E0,0E0,0E0,0E0],"parents":[2147483647,0,0,1,1,2,2,3,3,4,4,5,5,6,6,7,7,8,8,9,9,10,10,11,11,13,13,14,14,15,15,16,16,17,17,18,18,19,19,20,20,21,21,22,22,23,23,25,25,26,26,28,28,29,29,31,31,32,32,33,33,34,34,37,37,38,38,39,39,40,40,41,41,42,42,43,43,44,44,45,45,46,46,47,47,48,48,50,50,51,51,52,52],"right_children":[2,4,6,8,10,12,14,16,18,20,22,24,-1,26,28,30,32,34,36,38,40,42,44,46,-1,48,50,-1,52,54,-1,56,58,60,62,-1,-1,64,66,68,70,72,74,76,78,80,82,84,86,-1,88,90,92,-1,-1,-1,-1,-1,-1,-1,-1,-1,-1,-1,-1,-1,-1,-1,-1,-1,-1,-1,-1,-1,-1,-1,-1,-1,-1,-1,-1,-1,-1,-1,-1,-1,-1,-1,-1,-1,-1,-1,-1],"split_conditions":[6.344656E1,2.022601E3,6.365236E1,1.71E2,2.0853523E3,2.740645E3,6.3861286E1,1.9923674E3,2.023967E3,3.04E2,2.157662E3,1.532E3,2.728064E-1,2.2570342E3,1.9923674E3,4.87104E1,1.46E2,2.017808E3,2.025741E3,2.033826E3,6.1127808E1,2.1572166E3,2.191708E3,2.158314E3,2.2651039E-1,3.18E2,2.330507E3,-2.9881337E-1,3.46E2,3.909714E1,3.6072305E-1,3.6966312E1,5.869205E1,2.016647E3,5.4973022E1,-3.9380395E-1,5.233351E-2,2.032337E3,2.93E2,5.4858524E1,4.47E2,3.67E2,3.8895096E1,5.4659637E1,2.294634E3,2.77E2,2.3495867E3,2.97E2,5.54E2,3.5602328E-1,2.721278E3,3.42E2,4.66E2,-8.759631E-2,1.0695825E-1,2.396718E-1,-2.8464114E-2,-2.3752317E-1,5.1609214E-2,2.7008798E-2,-5.0507948E-2,2.920695E-2,1.5197052E-1,1.014053E-2,1.0344322E-1,-2.9154647E-2,7.6019235E-2,-3.2550383E-2,-8.642841E-2,9.602825E-2,-8.8575885E-2,8.0221444E-2,1.6324427E-2,4.6084326E-2,2.6572305E-1,-6.980211E-3,-6.326177E-2,3.8730204E-2,3.7008703E-3,-1.7029566E-1,1.3239555E-1,-3.1335706E-1,-8.057162E-2,-5.118723E-2,2.1916308E-1,-2.5373936E-1,4.7840565E-2,4.7901038E-2,3.5470632E-1,-4.7624516E-3,1.7369792E-1,-4.523045E-2,-1.3399504E-2],"split_indices":[6,5,6,4,5,0,6,5,0,4,1,4,0,5,5,6,4,2,1,1,6,5,2,0,0,4,0,0,4,6,0,6,6,3,6,0,0,3,4,6,4,4,6,6,3,4,5,4,4,0,0,4,4,0,0,0,0,0,0,0,0,0,0,0,0,0,0,0,0,0,0,0,0,0,0,0,0,0,0,0,0,0,0,0,0,0,0,0,0,0,0,0,0],"split_type":[0,0,0,0,0,0,0,0,0,0,0,0,0,0,0,0,0,0,0,0,0,0,0,0,0,0,0,0,0,0,0,0,0,0,0,0,0,0,0,0,0,0,0,0,0,0,0,0,0,0,0,0,0,0,0,0,0,0,0,0,0,0,0,0,0,0,0,0,0,0,0,0,0,0,0,0,0,0,0,0,0,0,0,0,0,0,0,0,0,0,0,0,0],"sum_hessian":[1.7329484E4,1.4891143E4,2.4383416E3,6.4296313E2,1.424818E4,6.966752E1,2.368674E3,5.433459E1,5.8862854E2,1.9625676E3,1.2285611E4,6.7919044E1,1.7484773E0,6.742192E1,2.3012522E3,6.9785104E0,4.735608E1,5.856338E2,2.9947884E0,9.5575104E2,1.0068166E3,2.8931525E2,1.1996296E4,6.567492E1,2.2441237E0,1.9449266E1,4.7972652E1,2.560374E0,2.2986917E3,3.9816513E0,2.9968593E0,2.6922688E1,2.0433392E1,3.8637683E2,1.9925694E2,1.7478462E0,1.2469422E0,5.0647443E2,4.492766E2,9.606337E2,4.6182896E1,2.6708963E2,2.222563E1,7.1712256E2,1.1279174E4,1.5208966E1,5.0465954E1,9.211415E0,1.023785E1,5.2425303E0,4.273012E1,5.280364E2,1.7706553E3,1.2451602E0,2.736491E0,1.7314842E0,2.5191204E1,1.6937056E1,3.496336E0,3.3112323E2,5.5253593E1,1.4312419E2,5.613275E1,4.2851633E2,7.79581E1,4.000514E2,4.9225224E1,7.9593945E2,1.6469426E2,3.3951965E1,1.2230929E1,1.576433E2,1.0944632E2,1.0235386E1,1.1990245E1,5.356642E2,1.814584E2,3.860601E2,1.0893113E4,5.2257895E0,9.983177E0,1.47489E1,3.5717052E1,6.9665966E0,2.2448187E0,7.490061E0,2.7477891E0,3.873144E1,3.9986799E0,5.1230664E2,1.5729762E1,4.6816058E2,1.3024948E3],"tree_param":{"num_deleted":"0","num_feature":"7","num_nodes":"93","size_leaf_vector":"1"}},{"base_weights":[2.5818457E-5,8.71955E-3,-3.4083854E-2,3.4781832E-2,1.1364738E-3,-6.7869276E-2,-3.0789506E-3,1.7232534E-1,2.8393107E-2,-2.1327566E-2,1.6051335E-2,-2.1461317E-2,-1.5128173E-1,3.81366E-1,-1.2002801E-2,2.984331E-1,-1.7750841E-1,-1.0875809E-1,3.719356E-2,-9.193004E-2,-8.5181445E-3,8.267311E-3,9.592565E-2,-2.867622E-2,8.6811465E-1,-7.238202E-1,-1.3217793E-1,1.002915E0,1.3401586E-1,-3.462428E-1,1.6918805E-4,5.2085644E-1,1.4311382E-1,-2.6654795E-2,-7.221802E-1,-2.4829838E-1,4.8352834E-2,2.3075981E-1,3.2236625E-2,-6.292765E-2,-5.7261187E-1,1.3379405E-1,-1.9208686E-2,1.8370882E-2,-1.0080333E-1,-9.765767E-3,1.8806066E-1,-2.1053376E-2,-7.8344864E-1,-6.4143166E-2,1.0769572E0,-9.8258644E-1,-3.8627827E-1,-6.0912967E-1,-1.1108738E-1,3.7877312E-1,-2.0571208E-2,-1.6317894E-1,6.705931E-1,-4.051945E-1,4.7234386E-1,4.695243E-1,-7.684861E-3,3.3954751E-1,1.2848267E-1,7.465914E-2,-3.2536205E-2,-3.7235364E-2,2.749658E-1,-3.3413205E-1,3.9711755E-2,-2.4361163E-3,-1.4796536E-1,2.405294E-2,-2.8101888E-1,5.5880927E-2,3.7371916E-1,-3.4784488E-4,1.8890884E-2,-8.335562E-3,-1.480171E-1,6.589476E-2,-2.1734513E-1,-1.0535142E-1,5.7800096E-2,-6.543432E-2,-2.6335977E-3,2.8773653E-3,3.4158293E-2,1.5605473E-2,-5.585481E-2,-1.30314585E-2,1.5656826E-1,7.072118E-2,-1.9894873E-1,-7.4232887E-3,3.3474386E-1,-9.7089164E-2,-3.6077505E-1,3.618476E-1,7.184415E-2,-8.8294856E-2,-3.776526E-1,-1.9705033E-1,4.0052466E-2,-5.5624444E-2,-3.1049836E-1,-2.9595198E-2,-1.7427768E-1,5.6798663E-2,-2.0795982E-1,3.5048974E-1,1.1836943E-1,-1.0381411E-1,-3.969533E-1,2.127824E-1,-3.1974006E-2,-3.931385E-2,2.122605E-1,-2.9512336E-2,7.906357E-3],"categories":[],"categories_nodes":[],"categories_segments":[],"categories_sizes":[],"default_left":[0,0,0,0,0,0,0,0,0,0,0,0,0,0,0,0,0,0,0,0,0,0,0,0,0,0,0,0,0,0,0,0,0,0,0,0,0,0,0,0,0,0,0,0,0,0,0,0,0,0,0,0,0,0,0,0,0,0,0,0,0,0,0,0,0,0,0,0,0,0,0,0,0,0,0,0,0,0,0,0,0,0,0,0,0,0,0,0,0,0,0,0,0,0,0,0,0,0,0,0,0,0,0,0,0,0,0,0,0,0,0,0,0,0,0,0,0,0,0,0,0],"id":3,"left_children":[1,3,5,7,9,11,13,15,17,19,21,23,25,27,29,31,33,35,37,39,41,43,45,47,49,51,53,55,57,59,61,63,65,67,69,71,73,75,77,79,81,83,85,87,89,91,93,95,97,-1,99,101,103,105,107,-1,-1,109,111,113,115,117,119,-1,-1,-1,-1,-1,-1,-1,-1,-1,-1,-1,-1,-1,-1,-1,-1,-1,-1,-1,-1,-1,-1,-1,-1,-1,-1,-1,-1,-1,-1,-1,-1,-1,-1,-1,-1,-1,-1,-1,-1,-1,-1,-1,-1,-1,-1,-1,-1,-1,-1,-1,-1,-1,-1,-1,-1,-1,-1],"loss_changes":[5.1376433E0,2.7285433E0,3.6858969E0,2.7294266E0,3.5839105E0,6.515129E0,6.3034315E0,6.1375976E0,3.5945573E0,3.8592806E0,3.9960747E0,6.9764967E0,6.4865236E0,6.273749E0,7.3041115E0,3.440568E0,3.034952E0,3.9499578E0,2.6754386E0,9.100267E0,5.500652E0,6.45819E0,5.5597525E0,6.17061E0,2.206406E0,1.298171E0,5.802701E0,3.3449516E0,5.0482097E0,3.2356186E0,6.3929358E0,1.8603172E0,1.6575431E0,2.885151E0,2.8324957E0,5.601627E0,2.750088E0,2.9132812E0,2.7994552E0,9.353095E0,4.6312866E0,7.2805943E0,6.9733047E0,4.494986E0,6.4925704E0,4.7984767E0,1.2533518E1,4.4991093E0,1.6776824E0,0E0,5.222864E-1,1.5736723E0,1.4916292E0,4.2271843E0,3.2154574E0,0E0,0E0,4.005368E0,1.0825028E0,2.766451E0,7.2021425E-1,4.1726265E0,5.268127E0,0E0,0E0,0E0,0E0,0E0,0E0,0E0,0E0,0E0,0E0,0E0,0E0,0E0,0E0,0E0,0E0,0E0,0E0,0E0,0E0,0E0,0E0,0E0,0E0,0E0,0E0,0E0,0E0,0E0,0E0,0E0,0E0,0E0,0E0,0E0,0E0,0E0,0E0,0E0,0E0,0E0,0E0,0E0,0E0,0E0,0E0,0E0,0E0,0E0,0E0,0E0,0E0,0E0,0E0,0E0,0E0,0E0,0E0],"parents":[2147483647,0,0,1,1,2,2,3,3,4,4,5,5,6,6,7,7,8,8,9,9,10,10,11,11,12,12,13,13,14,14,15,15,16,16,17,17,18,18,19,19,20,20,21,21,22,22,23,23,24,24,25,25,26,26,27,27,28,28,29,29,30,30,31,31,32,32,33,33,34,34,35,35,36,36,37,37,38,38,39,39,40,40,41,41,42,42,43,43,44,44,45,45,46,46,47,47,48,48,50,50,51,51,52,52,53,53,54,54,57,57,58,58,59,59,60,60,61,61,62,62],"right_children":[2,4,6,8,10,12,14,16,18,20,22,24,26,28,30,32,34,36,38,40,42,44,46,48,50,52,54,56,58,60,62,64,66,68,70,72,74,76,78,80,82,84,86,88,90,92,94,96,98,-1,100,102,104,106,108,-1,-1,110,112,114,116,118,120,-1,-1,-1,-1,-1,-1,-1,-1,-1,-1,-1,-1,-1,-1,-1,-1,-1,-1,-1,-1,-1,-1,-1,-1,-1,-1,-1,-1,-1,-1,-1,-1,-1,-1,-1,-1,-1,-1,-1,-1,-1,-1,-1,-1,-1,-1,-1,-1,-1,-1,-1,-1,-1,-1,-1,-1,-1,-1],"split_conditions":[6.0647015E1,4.0395073E1,2.37543E3,2.020742E3,4.8972908E1,2.318662E3,2.3807393E3,5.33E2,2.029524E3,2.046202E3,8.85E2,2.320403E3,2.320888E3,3.07E2,2.25E2,3.5255642E1,2.018824E3,3.42E2,2.032858E3,5.9E2,2.161417E3,6.83E2,5.4063435E1,2.318365E3,7.33E2,4.82E2,6.095638E1,7.0046555E1,2.3792583E3,6.95791E1,2.48E2,2.19E2,3.77E2,2.016647E3,8.97E2,2.85E2,2.0328887E3,1.373E3,3.4991814E1,4.8385212E1,4.128106E1,4.1616398E1,2.191708E3,5.9E2,5.2808636E1,2.307E3,2.307E3,2.317393E3,6.73808E1,-6.4143166E-2,2.319531E3,3.18E2,2.319767E3,6.0798565E1,2.373899E3,3.7877312E-1,-2.0571208E-2,2.380833E3,4.59E2,6.804636E1,2.659727E3,2.34E2,4.61E2,3.3954751E-1,1.2848267E-1,7.465914E-2,-3.2536205E-2,-3.7235364E-2,2.749658E-1,-3.3413205E-1,3.9711755E-2,-2.4361163E-3,-1.4796536E-1,2.405294E-2,-2.8101888E-1,5.5880927E-2,3.7371916E-1,-3.4784488E-4,1.8890884E-2,-8.335562E-3,-1.480171E-1,6.589476E-2,-2.1734513E-1,-1.0535142E-1,5.7800096E-2,-6.543432E-2,-2.6335977E-3,2.8773653E-3,3.4158293E-2,1.5605473E-2,-5.585481E-2,-1.30314585E-2,1.5656826E-1,7.072118E-2,-1.9894873E-1,-7.4232887E-3,3.3474386E-1,-9.7089164E-2,-3.6077505E-1,3.618476E-1,7.184415E-2,-8.8294856E-2,-3.776526E-1,-1.9705033E-1,4.0052466E-2,-5.5624444E-2,-3.1049836E-1,-2.9595198E-2,-1.7427768E-1,5.6798663E-2,-2.0795982E-1,3.5048974E-1,1.1836943E-1,-1.0381411E-1,-3.969533E-1,2.127824E-1,-3.1974006E-2,-3.931385E-2,2.122605E-1,-2.9512336E-2,7.906357E-3],"split_indices":[6,6,5,3,6,2,5,4,1,2,4,1,2,4,4,6,1,4,1,4,3,4,6,3,4,4,6,6,5,6,4,4,4,3,4,4,5,4,6,6,6,6,2,4,6,4,4,2,6,0,0,4,2,6,5,0,0,3,4,6,0,4,4,0,0,0,0,0,0,0,0,0,0,0,0,0,0,0,0,0,0,0,0,0,0,0,0,0,0,0,0,0,0,0,0,0,0,0,0,0,0,0,0,0,0,0,0,0,0,0,0,0,0,0,0,0,0,0,0,0,0],"split_type":[0,0,0,0,0,0,0,0,0,0,0,0,0,0,0,0,0,0,0,0,0,0,0,0,0,0,0,0,0,0,0,0,0,0,0,0,0,0,0,0,0,0,0,0,0,0,0,0,0,0,0,0,0,0,0,0,0,0,0,0,0,0,0,0,0,0,0,0,0,0,0,0,0,0,0,0,0,0,0,0,0,0,0,0,0,0,0,0,0,0,0,0,0,0,0,0,0,0,0,0,0,0,0,0,0,0,0,0,0,0,0,0,0,0,0,0,0,0,0,0,0],"sum_hessian":[1.7323273E4,1.3805364E4,3.5179094E3,3.1106797E3,1.0694685E4,1.682899E3,1.8350104E3,1.3692096E2,2.9737588E3,4.267202E3,6.4274824E3,1.0821072E3,6.0079175E2,4.068171E1,1.7943287E3,1.00749725E2,3.6171238E1,1.78624E2,2.7951348E3,6.5435834E2,3.6128438E3,5.85773E3,5.697522E2,1.0743615E3,7.7458396E0,1.8208118E1,5.825836E2,1.0711327E1,2.997038E1,6.2083527E1,1.7322451E3,4.0458332E1,6.0291393E1,2.9147432E1,7.0238056E0,9.429455E1,8.4329445E1,6.865441E1,2.7264802E3,6.181901E2,3.6168175E1,2.5163045E2,3.3612131E3,5.3618735E3,4.9585632E2,2.6577084E2,3.0398138E2,1.064637E3,9.724436E0,1.2494059E0,6.4964333E0,9.225027E0,8.983091E0,2.3489908E1,5.5909375E2,8.4783535E0,2.2329726E0,1.9735397E1,1.0234983E1,5.838393E1,3.6995966E0,2.7542362E1,1.7047028E3,3.846815E0,3.6611515E1,4.2455425E1,1.7835966E1,2.7204733E1,1.9426984E0,4.6086025E0,2.415203E0,4.812973E1,4.6164818E1,8.258025E1,1.749191E0,6.690522E1,1.749191E0,1.3070894E3,1.419391E3,5.7251526E2,4.5674896E1,5.746171E0,3.0422003E1,2.6702642E1,2.2492781E2,1.664783E2,3.1947349E3,4.911404E3,4.5046982E2,1.7787192E2,3.179844E2,2.5080455E2,1.49662895E1,2.8854327E2,1.54381075E1,1.0621667E3,2.4701676E0,5.4822226E0,4.2422132E0,5.246761E0,1.2496724E0,3.2337508E0,5.9912767E0,5.734527E0,3.248564E0,1.24941845E1,1.0995724E1,5.458548E2,1.3238935E1,1.2238538E1,7.4968596E0,2.4981117E0,7.736872E0,5.614346E1,2.2404702E0,2.4654317E0,1.2341648E0,7.944777E0,1.9597586E1,4.6470914E2,1.2399937E3],"tree_param":{"num_deleted":"0","num_feature":"7","num_nodes":"121","size_leaf_vector":"1"}},{"base_weights":[4.9797995E-6,4.6828035E-3,-4.324901E-2,1.7871086E-1,3.9230697E-3,-2.9502044E-2,-2.1116465E-1,4.3671829E-1,6.672631E-2,-2.0848688E-2,8.786199E-3,-3.914981E-2,6.127125E-1,-5.601797E-1,-9.579446E-2,1.8058434E-1,3.3483577E-1,-3.7726372E-1,1.3553655E-1,2.3912431E-3,-1.2745446E-1,9.6813284E-2,6.3924487E-3,-2.7510379E-2,-2.3984233E-1,9.415937E-1,3.7751306E-2,-2.4214217E-1,-1.1556284E0,-7.554868E-1,-1.3714447E-2,3.5098645E-1,-1.9296272E-1,9.346032E-1,6.0097933E-2,1.0467359E-2,-3.886781E-1,-1.7999299E-1,7.317486E-2,2.5325233E-1,3.503239E-2,7.208504E-3,-1.5397483E-1,-3.326213E-2,6.277569E-1,-4.9250534E-1,4.9783234E-2,5.8605516E-1,1.0767077E0,5.447547E-1,-6.4520055E-1,1.3876016E-2,-4.8971468E-1,-3.751744E-1,-1.02678016E-1,-1.0167835E0,2.0466603E-1,1.9043143E-1,-2.5254938E-1,1.7041647E-1,-1.3618952E-1,8.974544E-2,-1.7617053E-1,3.661529E-1,5.0971564E-2,-8.387638E-2,1.01957664E-1,1.6534591E-2,-7.310225E-3,-1.7290653E-1,7.101924E-3,-6.6695866E-5,-7.440557E-2,-9.6967695E-3,1.6442332E-1,5.1816113E-2,1.7661151E-1,-1.6886227E-2,6.1512653E-2,2.2384638E-3,-2.1095069E-1,3.7750453E-1,-6.411975E-2,-2.1416932E-1,-8.9566E-3,2.8021207E-1,-2.5544517E-2,1.0261628E-1,-2.596316E-1,-1.17961146E-1,1.52039E-1,3.3865345E-1,-1.5462357E-1,2.0478599E-1,4.4936183E-1,-1.6091019E-2,3.195883E-1,-3.7668702E-1,5.9872296E-2,-6.452455E-2,1.5361372E-1,-1.9414753E-1,6.761462E-2,-3.5214826E-1,-8.480326E-2,-1.1496229E-2,2.4156849E-1,1.2833665E-1,-1.3766482E-1],"categories":[],"categories_nodes":[],"categories_segments":[],"categories_sizes":[],"default_left":[0,0,0,0,0,0,0,0,0,0,0,0,0,0,0,0,0,0,0,0,0,0,0,0,0,0,0,0,0,0,0,0,0,0,0,0,0,0,0,0,0,0,0,0,0,0,0,0,0,0,0,0,0,0,0,0,0,0,0,0,0,0,0,0,0,0,0,0,0,0,0,0,0,0,0,0,0,0,0,0,0,0,0,0,0,0,0,0,0,0,0,0,0,0,0,0,0,0,0,0,0,0,0,0,0,0,0,0,0],"id":4,"left_children":[1,3,5,7,9,11,13,15,17,19,21,23,25,27,29,31,-1,-1,33,35,37,39,41,43,45,47,49,51,53,55,57,59,61,63,65,67,69,71,73,75,77,79,81,83,85,87,89,91,93,95,97,99,101,-1,-1,103,-1,105,107,-1,-1,-1,-1,-1,-1,-1,-1,-1,-1,-1,-1,-1,-1,-1,-1,-1,-1,-1,-1,-1,-1,-1,-1,-1,-1,-1,-1,-1,-1,-1,-1,-1,-1,-1,-1,-1,-1,-1,-1,-1,-1,-1,-1,-1,-1,-1,-1,-1,-1],"loss_changes":[3.503788E0,2.0653958E0,3.8948593E0,1.9327154E0,1.8746572E0,9.709961E0,5.089321E0,3.3433783E0,4.592664E0,6.327122E0,2.7401915E0,3.593286E0,4.3508806E0,5.6902885E0,5.2527833E0,1.0853426E0,0E0,0E0,2.7791603E0,6.6290164E0,4.83117E0,3.3185225E0,1.6584194E0,5.514983E0,6.196917E0,7.584953E-2,3.6348712E0,1.389473E0,3.9918232E-1,4.7272463E0,4.31254E0,2.2381625E0,1.2725917E0,6.647024E-1,4.2808256E0,3.1992729E0,3.3002224E0,4.4331512E0,4.8057075E0,2.5270638E0,3.8612864E0,2.2703032E0,5.683948E0,3.3316526E0,2.860135E0,1.4345323E1,8.339355E0,4.3163724E0,5.4900074E-1,1.9212279E0,2.570068E0,1.4442708E0,1.397582E0,0E0,0E0,7.6194954E-1,0E0,6.7428756E0,5.9147987E0,0E0,0E0,0E0,0E0,0E0,0E0,0E0,0E0,0E0,0E0,0E0,0E0,0E0,0E0,0E0,0E0,0E0,0E0,0E0,0E0,0E0,0E0,0E0,0E0,0E0,0E0,0E0,0E0,0E0,0E0,0E0,0E0,0E0,0E0,0E0,0E0,0E0,0E0,0E0,0E0,0E0,0E0,0E0,0E0,0E0,0E0,0E0,0E0,0E0,0E0],"parents":[2147483647,0,0,1,1,2,2,3,3,4,4,5,5,6,6,7,7,8,8,9,9,10,10,11,11,12,12,13,13,14,14,15,15,18,18,19,19,20,20,21,21,22,22,23,23,24,24,25,25,26,26,27,27,28,28,29,29,30,30,31,31,32,32,33,33,34,34,35,35,36,36,37,37,38,38,39,39,40,40,41,41,42,42,43,43,44,44,45,45,46,46,47,47,48,48,49,49,50,50,51,51,52,52,55,55,57,57,58,58],"right_children":[2,4,6,8,10,12,14,16,18,20,22,24,26,28,30,32,-1,-1,34,36,38,40,42,44,46,48,50,52,54,56,58,60,62,64,66,68,70,72,74,76,78,80,82,84,86,88,90,92,94,96,98,100,102,-1,-1,104,-1,106,108,-1,-1,-1,-1,-1,-1,-1,-1,-1,-1,-1,-1,-1,-1,-1,-1,-1,-1,-1,-1,-1,-1,-1,-1,-1,-1,-1,-1,-1,-1,-1,-1,-1,-1,-1,-1,-1,-1,-1,-1,-1,-1,-1,-1,-1,-1,-1,-1,-1,-1],"split_conditions":[6.592719E1,1.992811E3,2.684753E3,2.12E2,2.060918E3,2.6751133E3,4.35E2,1.97E2,2.19E2,4.35E2,2.1553118E3,2.658528E3,2.683475E3,3.59E2,2.696775E3,1.9923674E3,3.3483577E-1,-3.7726372E-1,2.34E2,2.05587E3,7.89E2,4.429625E1,2.780753E3,2.655676E3,2.6619343E3,2.679735E3,7.48E2,6.83943E1,4.23E2,1.849E3,7.48E2,1.89E2,4.1616398E1,4.9552834E1,3.16E2,2.027759E3,3.33E2,3.7675816E1,5.6713093E1,4.2995113E1,5.6585182E1,2.780737E3,3.588012E1,1.999452E3,2.657768E3,4.54E2,7.63E2,7.2752464E1,1.116E3,6.29E2,1.23E3,6.73808E1,3.13E2,-3.751744E-1,-1.02678016E-1,7.344524E1,2.0466603E-1,7.2752464E1,2.706303E3,1.7041647E-1,-1.3618952E-1,8.974544E-2,-1.7617053E-1,3.661529E-1,5.0971564E-2,-8.387638E-2,1.01957664E-1,1.6534591E-2,-7.310225E-3,-1.7290653E-1,7.101924E-3,-6.6695866E-5,-7.440557E-2,-9.6967695E-3,1.6442332E-1,5.1816113E-2,1.7661151E-1,-1.6886227E-2,6.1512653E-2,2.2384638E-3,-2.1095069E-1,3.7750453E-1,-6.411975E-2,-2.1416932E-1,-8.9566E-3,2.8021207E-1,-2.5544517E-2,1.0261628E-1,-2.596316E-1,-1.17961146E-1,1.52039E-1,3.3865345E-1,-1.5462357E-1,2.0478599E-1,4.4936183E-1,-1.6091019E-2,3.195883E-1,-3.7668702E-1,5.9872296E-2,-6.452455E-2,1.5361372E-1,-1.9414753E-1,6.761462E-2,-3.5214826E-1,-8.480326E-2,-1.1496229E-2,2.4156849E-1,1.2833665E-1,-1.3766482E-1],"split_indices":[6,1,5,4,2,5,4,4,4,4,5,1,2,4,3,5,0,0,4,1,4,6,0,2,5,2,4,6,4,4,4,4,6,6,4,3,4,6,6,6,6,3,6,1,3,4,4,6,4,4,4,6,4,0,0,6,0,6,1,0,0,0,0,0,0,0,0,0,0,0,0,0,0,0,0,0,0,0,0,0,0,0,0,0,0,0,0,0,0,0,0,0,0,0,0,0,0,0,0,0,0,0,0,0,0,0,0,0,0],"split_type":[0,0,0,0,0,0,0,0,0,0,0,0,0,0,0,0,0,0,0,0,0,0,0,0,0,0,0,0,0,0,0,0,0,0,0,0,0,0,0,0,0,0,0,0,0,0,0,0,0,0,0,0,0,0,0,0,0,0,0,0,0,0,0,0,0,0,0,0,0,0,0,0,0,0,0,0,0,0,0,0,0,0,0,0,0,0,0,0,0,0,0,0,0,0,0,0,0,0,0,0,0,0,0,0,0,0,0,0,0],"sum_hessian":[1.7314805E4,1.5625801E4,1.6890042E3,6.690109E1,1.55589E4,1.5622788E3,1.26725395E2,1.937111E1,4.7529984E1,2.5526992E3,1.3006201E4,1.5400817E3,2.219707E1,3.0525354E1,9.620004E1,1.4986866E1,4.3842454E0,1.4943943E0,4.6035587E1,2.0966167E3,4.560824E2,3.4327463E2,1.2662926E4,1.4567336E3,8.334812E1,1.37145815E1,8.482487E0,2.0814625E1,9.71073E0,9.737077E0,8.646297E1,1.0333429E1,4.6534367E0,2.9887714E0,4.3046818E1,2.0551484E3,4.1468388E1,3.6151566E2,9.456674E1,9.6308075E1,2.4696655E2,1.2599766E4,6.3160923E1,1.444999E3,1.1734555E1,4.414046E1,3.920766E1,5.2464843E0,8.468098E0,4.984496E0,3.4979904E0,1.0696833E1,1.0117792E1,8.214261E0,1.4964688E0,8.487319E0,1.2497574E0,4.672613E1,3.973683E1,8.370488E0,1.9629413E0,2.1772017E0,2.4762347E0,1.7415651E0,1.2472063E0,1.9441525E1,2.3605291E1,9.004518E2,1.1546967E3,2.8224566E1,1.3243822E1,9.951951E1,2.6199612E2,7.8140205E1,1.6426537E1,7.888506E1,1.7423008E1,1.6110097E2,8.5865585E1,1.2596268E4,3.4973967E0,1.7497399E0,6.1411182E1,6.157997E0,1.4388411E3,7.991153E0,3.7434022E0,1.3658322E1,3.0482138E1,1.9980253E1,1.9227407E1,3.497904E0,1.7485803E0,5.7285924E0,2.7395048E0,2.736121E0,2.2483754E0,1.7483301E0,1.7496604E0,7.7179384E0,2.9788945E0,8.369971E0,1.7478206E0,6.4981985E0,1.9891206E0,3.4738415E1,1.1987719E1,8.99722E0,3.0739613E1],"tree_param":{"num_deleted":"0","num_feature":"7","num_nodes":"109","size_leaf_vector":"1"}},{"base_weights":[4.8814032E-5,7.9058984E-4,-1.8809293E-1,2.2508688E-2,-3.9836927E-3,-4.11011E-3,-5.1381785E-1,2.4670698E-2,-2.4917994E-1,2.026411E-3,-3.8658787E-2,-2.081601E-1,7.827774E-1,-9.741653E-1,-3.3169723E-1,1.9514306E-2,2.4141854E-1,3.4565935E-1,-4.269752E-1,1.1494093E-3,2.7461654E-1,-1.1165503E-1,-1.4244489E-2,-3.028704E-1,5.334117E-1,-1.6844504E-3,1.0271493E0,-4.0948358E-1,-7.4043535E-2,6.8050474E-2,-4.191966E-1,2.8255906E-2,-1.4880352E-1,3.4132215E-1,-1.51027E-1,2.8823838E-1,-1.5515652E-1,-9.580725E-2,-6.380684E-1,-1.158145E-2,1.7101409E-2,-3.3861062E-1,4.0847954E-1,-4.3933496E-2,-2.9955408E-1,-1.474146E-1,4.829461E-3,1.0232466E-2,-5.583553E-1,2.0910485E-1,1.6152384E-2,3.551945E-1,4.2468086E-2,-3.328263E-1,-2.80301E-1,7.556205E-3,1.2208686E-1,4.9658805E-2,-6.473826E-2,8.9541964E-2,3.4918362E-1,1.7454442E-2,-3.7234208E-1,-1.8958704E-1,3.0372477E-1,3.622199E-2,-2.2180766E-1,-2.5921832E-3,-5.8492467E-2,-5.0858883E-3,1.5684597E-2,1.496287E-2,-3.403529E-1,3.391234E-1,7.518896E-2,7.972968E-2,-2.7065517E-2,-2.8353462E-1,-7.542251E-2,-5.854572E-2,1.4303899E-1,1.21020906E-1,-6.3450047E-4,-1.09628715E-1,1.3380203E-1,-6.9400914E-2,-3.0608374E-1,-2.2250999E-2,-2.0452744E-1],"categories":[],"categories_nodes":[],"categories_segments":[],"categories_sizes":[],"default_left":[0,0,0,0,0,0,0,0,0,0,0,0,0,0,0,0,0,0,0,0,0,0,0,0,0,0,0,0,0,0,0,0,0,0,0,0,0,0,0,0,0,0,0,0,0,0,0,0,0,0,0,0,0,0,0,0,0,0,0,0,0,0,0,0,0,0,0,0,0,0,0,0,0,0,0,0,0,0,0,0,0,0,0,0,0,0,0,0,0],"id":5,"left_children":[1,3,5,7,9,11,13,15,17,19,21,23,25,27,29,31,33,35,37,39,41,43,45,47,49,-1,51,-1,-1,-1,53,55,57,59,61,-1,-1,63,65,67,69,71,73,75,77,79,81,83,85,-1,-1,-1,-1,-1,87,-1,-1,-1,-1,-1,-1,-1,-1,-1,-1,-1,-1,-1,-1,-1,-1,-1,-1,-1,-1,-1,-1,-1,-1,-1,-1,-1,-1,-1,-1,-1,-1,-1,-1],"loss_changes":[2.415791E0,1.7878977E0,4.0717688E0,1.8314216E0,2.9459748E0,7.3000407E0,1.7334175E0,3.4418473E0,2.751669E0,2.880025E0,3.7199132E0,2.6961071E0,1.8096609E0,1.4927864E0,1.0281668E0,4.4377584E0,2.8575807E0,3.7975874E0,1.2953475E0,2.4393983E0,3.3098047E0,6.6448126E0,3.9784272E0,2.6165216E0,3.115456E-1,0E0,8.2586956E-1,0E0,0E0,0E0,1.3051696E0,3.3194056E0,3.171695E0,1.674254E0,3.542319E0,0E0,0E0,5.8271275E0,9.865074E-1,3.6012893E0,6.388206E0,2.366082E0,3.3821797E0,5.5539103E0,4.0654526E0,5.9402847E0,3.7949352E0,2.7245016E0,2.4816017E0,0E0,0E0,0E0,0E0,0E0,1.2214934E0,0E0,0E0,0E0,0E0,0E0,0E0,0E0,0E0,0E0,0E0,0E0,0E0,0E0,0E0,0E0,0E0,0E0,0E0,0E0,0E0,0E0,0E0,0E0,0E0,0E0,0E0,0E0,0E0,0E0,0E0,0E0,0E0,0E0,0E0],"parents":[2147483647,0,0,1,1,2,2,3,3,4,4,5,5,6,6,7,7,8,8,9,9,10,10,11,11,12,12,13,13,14,14,15,15,16,16,17,17,18,18,19,19,20,20,21,21,22,22,23,23,24,24,26,26,30,30,31,31,32,32,33,33,34,34,37,37,38,38,39,39,40,40,41,41,42,42,43,43,44,44,45,45,46,46,47,47,48,48,54,54],"right_children":[2,4,6,8,10,12,14,16,18,20,22,24,26,28,30,32,34,36,38,40,42,44,46,48,50,-1,52,-1,-1,-1,54,56,58,60,62,-1,-1,64,66,68,70,72,74,76,78,80,82,84,86,-1,-1,-1,-1,-1,88,-1,-1,-1,-1,-1,-1,-1,-1,-1,-1,-1,-1,-1,-1,-1,-1,-1,-1,-1,-1,-1,-1,-1,-1,-1,-1,-1,-1,-1,-1,-1,-1,-1,-1],"split_conditions":[8.169016E1,4.0395073E1,2.407354E3,2.751859E3,7.8E2,2.356675E3,2.501834E3,2.731486E3,4.54E2,7.932691E1,8.85E2,1.593E3,6.77E2,1.469E3,2.523716E3,2.671803E3,1.23E3,3.7880566E1,3.3705566E1,2.3845305E3,3.61E2,2.6428748E3,4.417457E1,2.053635E3,2.307E3,-1.6844504E-3,2.399213E3,-4.0948358E-1,-7.4043535E-2,6.8050474E-2,2.578205E3,2.6694294E3,3.44E2,1.168E3,2.747129E3,2.8823838E-1,-1.5515652E-1,2.7802437E3,2.751157E3,2.382175E3,4.64E2,3.35E2,4.17E2,4.468491E1,2.646338E3,2.712302E3,4.4561535E1,2.0323285E3,7.48E2,2.0910485E-1,1.6152384E-2,3.551945E-1,4.2468086E-2,-3.328263E-1,2.684753E3,7.556205E-3,1.2208686E-1,4.9658805E-2,-6.473826E-2,8.9541964E-2,3.4918362E-1,1.7454442E-2,-3.7234208E-1,-1.8958704E-1,3.0372477E-1,3.622199E-2,-2.2180766E-1,-2.5921832E-3,-5.8492467E-2,-5.0858883E-3,1.5684597E-2,1.496287E-2,-3.403529E-1,3.391234E-1,7.518896E-2,7.972968E-2,-2.7065517E-2,-2.8353462E-1,-7.542251E-2,-5.854572E-2,1.4303899E-1,1.21020906E-1,-6.3450047E-4,-1.09628715E-1,1.3380203E-1,-6.9400914E-2,-3.0608374E-1,-2.2250999E-2,-2.0452744E-1],"split_indices":[6,6,2,1,4,0,0,3,4,6,4,4,4,4,0,0,4,6,6,5,4,5,6,0,4,0,2,0,0,0,1,5,4,4,1,0,0,5,3,0,4,4,4,6,0,1,6,5,4,0,0,0,0,0,5,0,0,0,0,0,0,0,0,0,0,0,0,0,0,0,0,0,0,0,0,0,0,0,0,0,0,0,0,0,0,0,0,0,0],"split_type":[0,0,0,0,0,0,0,0,0,0,0,0,0,0,0,0,0,0,0,0,0,0,0,0,0,0,0,0,0,0,0,0,0,0,0,0,0,0,0,0,0,0,0,0,0,0,0,0,0,0,0,0,0,0,0,0,0,0,0,0,0,0,0,0,0,0,0,0,0,0,0,0,0,0,0,0,0,0,0,0,0,0,0,0,0,0,0,0,0],"sum_hessian":[1.730811E4,1.724113E4,6.697983E1,3.1064136E3,1.4134717E4,4.3450066E1,2.3529764E1,3.082791E3,2.3622648E1,1.2047509E4,2.0872078E3,3.5087017E1,8.363049E0,5.4371743E0,1.809259E1,3.012221E3,7.057016E1,5.2186775E0,1.840397E1,1.2009874E4,3.7635036E1,5.2222766E2,1.5649802E3,3.1637943E1,3.4490755E0,2.210041E0,6.153007E0,2.9666913E0,2.470483E0,2.234806E0,1.5857783E1,2.8642957E3,1.479253E2,5.6354454E1,1.4215705E1,2.9803977E0,2.2382798E0,7.7303214E0,1.0673649E1,6.679455E3,5.3304185E3,6.469355E0,3.1165682E1,3.8478088E2,1.3744676E2,1.952261E2,1.3697542E3,1.4647289E1,1.6990654E1,2.233652E0,1.2154235E0,4.941037E0,1.2119699E0,1.4859747E0,1.4371809E1,2.842331E3,2.1964516E1,2.572901E1,1.2219629E2,5.485974E1,1.4947137E0,1.2720991E1,1.4947137E0,5.499476E0,2.2308457E0,1.2343807E0,9.439268E0,6.5750664E3,1.0438859E2,2.7088262E3,2.6215923E3,4.9772425E0,1.4921123E0,4.4862633E0,2.6679419E1,4.9412502E1,3.3536838E2,8.24628E0,1.2920049E2,1.8199504E2,1.3231073E1,2.2479267E1,1.3472749E3,7.9528866E0,6.694402E0,1.0826702E1,6.163952E0,1.0278825E1,4.092984E0],"tree_param":{"num_deleted":"0","num_feature":"7","num_nodes":"89","size_leaf_vector":"1"}},{"base_weights":[2.7911692E-6,2.2747929E-3,-4.6313126E-2,6.451067E-4,1.9615121E-1,-1.271462E-1,-1.7903792E-2,3.1369678E-3,-7.22911E-2,8.243662E-2,4.495103E-1,-1.0815502E-1,-3.0635598E-1,2.2317484E-1,-5.384507E-2,1.3310653E-1,2.5832064E-3,5.715347E-1,-8.002685E-2,2.9977548E-1,-6.4979814E-2,1.0117822E0,3.474313E-1,-1.545046E-1,3.386736E-1,3.3702752E-1,-6.125267E-1,-8.067811E-1,-3.951728E-2,1.8374255E-1,-4.4964677E-1,-7.336137E-3,1.0268307E-2,-1.4627503E-1,8.675579E-1,2.8309715E-1,-9.499981E-2,1.4343192E-1,6.6262037E-1,3.1246731E-2,-8.382712E-1,-5.7568893E-2,4.1086456E-1,4.0420225E-1,-1.5504271E-1,-5.652469E-2,-4.5245522E-1,3.727758E-1,1.2109441E-1,1.0788058E-1,8.4288245E-1,1.357257E-1,-8.613937E-1,3.0076376E-1,-4.03689E-1,-7.729252E-2,1.0104227E-1,2.760689E-2,1.9757935E-1,2.930183E-1,-3.1703383E-1,-3.6876067E-4,-5.2711964E-2,3.3961214E-2,1.7320748E-3,3.4133068E-1,5.5028755E-2,-2.4302088E-1,1.4744747E-1,-5.4259017E-2,-1.2787646E-2,6.699385E-2,-2.3360454E-1,6.0610577E-2,2.956784E-1,-5.448374E-2,9.931751E-2,-3.9250395E-1,1.2982075E-1,-1.1032552E-1,1.3465428E-1,-6.3302845E-2,1.0385769E-1,2.4234457E-2,-2.3848677E-1,-1.8394324E-1,9.141165E-2,2.3523802E-1,-1.3973291E-3,3.420847E-1,1.2661825E-1,1.9292153E-1,-3.6669356E-1,2.877949E-1,-1.9121419E-1,1.3482696E-3,-6.4855054E-2,-1.1982544E-1,4.324078E-2],"categories":[],"categories_nodes":[],"categories_segments":[],"categories_sizes":[],"default_left":[0,0,0,0,0,0,0,0,0,0,0,0,0,0,0,0,0,0,0,0,0,0,0,0,0,0,0,0,0,0,0,0,0,0,0,0,0,0,0,0,0,0,0,0,0,0,0,0,0,0,0,0,0,0,0,0,0,0,0,0,0,0,0,0,0,0,0,0,0,0,0,0,0,0,0,0,0,0,0,0,0,0,0,0,0,0,0,0,0,0,0,0,0,0,0,0,0,0,0],"id":6,"left_children":[1,3,5,7,9,11,13,15,17,19,21,23,-1,25,27,29,31,33,35,37,39,41,43,45,47,49,51,53,55,57,59,61,63,-1,65,67,69,71,73,75,77,-1,-1,79,-1,81,83,-1,85,87,89,-1,91,93,-1,95,97,-1,-1,-1,-1,-1,-1,-1,-1,-1,-1,-1,-1,-1,-1,-1,-1,-1,-1,-1,-1,-1,-1,-1,-1,-1,-1,-1,-1,-1,-1,-1,-1,-1,-1,-1,-1,-1,-1,-1,-1,-1,-1],"loss_changes":[1.8210878E0,5.2120953E0,1.856052E0,2.9736187E0,3.9246283E0,3.4599204E0,5.2103696E0,1.1382952E0,2.7377717E0,3.0995545E0,2.0805502E0,4.339929E0,0E0,7.631048E0,5.609275E0,2.0626528E0,1.2010555E0,2.4735093E0,2.935587E0,2.1191254E0,4.3497257E0,2.8413806E0,2.0431767E0,5.470255E0,3.7377458E0,7.9445305E0,2.9634688E0,6.2016315E0,2.7380497E0,2.6591573E0,5.928925E0,7.0720153E0,4.1066194E0,0E0,8.0272293E-1,5.2816586E0,2.3062015E0,2.277141E0,1.5081835E0,3.419311E0,4.429418E0,0E0,0E0,1.3934479E0,0E0,8.957938E0,8.546612E0,0E0,2.484392E0,3.7218208E0,2.205163E0,0E0,5.2472463E0,3.080496E0,0E0,4.611187E0,2.4159412E0,0E0,0E0,0E0,0E0,0E0,0E0,0E0,0E0,0E0,0E0,0E0,0E0,0E0,0E0,0E0,0E0,0E0,0E0,0E0,0E0,0E0,0E0,0E0,0E0,0E0,0E0,0E0,0E0,0E0,0E0,0E0,0E0,0E0,0E0,0E0,0E0,0E0,0E0,0E0,0E0,0E0,0E0],"parents":[2147483647,0,0,1,1,2,2,3,3,4,4,5,5,6,6,7,7,8,8,9,9,10,10,11,11,13,13,14,14,15,15,16,16,17,17,18,18,19,19,20,20,21,21,22,22,23,23,24,24,25,25,26,26,27,27,28,28,29,29,30,30,31,31,32,32,34,34,35,35,36,36,37,37,38,38,39,39,40,40,43,43,45,45,46,46,48,48,49,49,50,50,52,52,53,53,55,55,56,56],"right_children":[2,4,6,8,10,12,14,16,18,20,22,24,-1,26,28,30,32,34,36,38,40,42,44,46,48,50,52,54,56,58,60,62,64,-1,66,68,70,72,74,76,78,-1,-1,80,-1,82,84,-1,86,88,90,-1,92,94,-1,96,98,-1,-1,-1,-1,-1,-1,-1,-1,-1,-1,-1,-1,-1,-1,-1,-1,-1,-1,-1,-1,-1,-1,-1,-1,-1,-1,-1,-1,-1,-1,-1,-1,-1,-1,-1,-1,-1,-1,-1,-1,-1,-1],"split_conditions":[7.047229E1,6.95791E1,4.13E2,6.6755066E1,6.38E2,2.71717E3,2.124826E3,1.992811E3,1.57E2,3.63E2,6.83E2,2.6296084E3,-3.0635598E-1,9.38E2,2.164069E3,5.68E2,2.349732E3,2.019664E3,2.023069E3,3.26E2,2.659727E3,2.179931E3,2.696775E3,2.344462E3,2.638854E3,2.04919E3,7.2752464E1,7.204976E1,1.198E3,4.08E2,3.6403503E1,2.343533E3,2.359258E3,-1.4627503E-1,6.804636E1,1.999452E3,6.769305E1,3.18E2,2.273767E3,2.41494E3,2.7462864E3,-5.7568893E-2,4.1086456E-1,6.94E2,-1.5504271E-1,2.175904E3,3.18E2,3.727758E-1,2.647338E3,4.35E2,7.6175095E1,1.357257E-1,2.034369E3,5.09E2,-4.03689E-1,7.48E2,2.315567E3,2.760689E-2,1.9757935E-1,2.930183E-1,-3.1703383E-1,-3.6876067E-4,-5.2711964E-2,3.3961214E-2,1.7320748E-3,3.4133068E-1,5.5028755E-2,-2.4302088E-1,1.4744747E-1,-5.4259017E-2,-1.2787646E-2,6.699385E-2,-2.3360454E-1,6.0610577E-2,2.956784E-1,-5.448374E-2,9.931751E-2,-3.9250395E-1,1.2982075E-1,-1.1032552E-1,1.3465428E-1,-6.3302845E-2,1.0385769E-1,2.4234457E-2,-2.3848677E-1,-1.8394324E-1,9.141165E-2,2.3523802E-1,-1.3973291E-3,3.420847E-1,1.2661825E-1,1.9292153E-1,-3.6669356E-1,2.877949E-1,-1.9121419E-1,1.3482696E-3,-6.4855054E-2,-1.1982544E-1,4.324078E-2],"split_indices":[6,6,4,6,4,5,1,1,4,4,4,5,0,4,5,4,0,0,1,4,0,0,3,0,0,5,6,6,4,4,6,3,1,0,6,1,6,4,0,0,5,0,0,4,0,0,4,0,0,4,6,0,5,4,0,4,3,0,0,0,0,0,0,0,0,0,0,0,0,0,0,0,0,0,0,0,0,0,0,0,0,0,0,0,0,0,0,0,0,0,0,0,0,0,0,0,0,0,0],"split_type":[0,0,0,0,0,0,0,0,0,0,0,0,0,0,0,0,0,0,0,0,0,0,0,0,0,0,0,0,0,0,0,0,0,0,0,0,0,0,0,0,0,0,0,0,0,0,0,0,0,0,0,0,0,0,0,0,0,0,0,0,0,0,0,0,0,0,0,0,0,0,0,0,0,0,0,0,0,0,0,0,0,0,0,0,0,0,0,0,0,0,0,0,0,0,0,0,0,0,0],"sum_hessian":[1.730381E4,1.649558E4,8.0823065E2,1.6359071E4,1.3650774E2,2.092828E2,5.989479E2,1.5819555E4,5.3951715E2,9.513423E1,4.137351E1,2.0602734E2,3.2554536E0,7.703316E1,5.2191473E2,6.610088E1,1.5753453E4,5.540187E0,5.339769E2,3.8030952E1,5.7103283E1,4.987821E0,3.6385685E1,1.8725734E2,1.8770004E1,6.832196E1,8.711201E0,8.713342E0,5.1320135E2,6.1446438E1,4.654444E0,6.877083E3,8.87637E3,1.0688652E0,4.4713216E0,2.0436808E1,5.1354016E2,2.7553797E1,1.0477154E1,5.1637257E1,5.4660254E0,1.249064E0,3.7387571E0,3.4642372E1,1.7433133E0,1.4181255E2,4.5444798E1,2.7275782E0,1.6042427E1,4.7856663E1,2.0465298E1,1.4951737E0,7.216027E0,2.9964027E0,5.7169385E0,4.048488E2,1.0835259E2,5.249976E1,8.946679E0,1.2078981E0,3.446546E0,6.637348E3,2.3973485E2,3.7036172E2,8.506009E3,2.7299705E0,1.741351E0,2.8098881E0,1.7626919E1,1.93636E2,3.1990414E2,2.6054565E1,1.4992307E0,4.988595E0,5.488559E0,3.0428198E1,2.1209059E1,3.9688056E0,1.4972196E0,1.498304E0,3.314407E1,1.0283892E2,3.8973625E1,1.8072304E1,2.7372494E1,2.7412274E0,1.3301199E1,5.9764376E0,4.1880226E1,1.098934E1,9.475957E0,1.2449135E0,5.971113E0,1.7472863E0,1.2491165E0,2.5541428E2,1.4943451E2,7.934785E0,1.0041781E2],"tree_param":{"num_deleted":"0","num_feature":"7","num_nodes":"99","size_leaf_vector":"1"}},{"base_weights":[1.8856688E-5,3.145773E-2,-2.4843123E-3,1.3079217E-2,3.221818E-1,-4.344104E-2,2.137517E-3,6.272123E-3,3.70291E-1,9.226833E-2,6.238612E-1,-4.5890182E-2,6.8891263E-1,6.6273175E-2,-6.8690156E-4,3.2131445E-2,-1.3967264E-1,-2.4753843E-1,4.9515346E-1,5.1432946E-3,3.3142462E-1,-1.2950163E-1,7.2607017E-1,-4.27635E-2,-9.2251927E-1,3.8828865E-2,2.7383947E-1,7.2439903E-1,5.7708263E-2,-1.1733407E0,-1.16795214E-4,2.7491331E-2,6.8949825E-1,-8.046019E-1,-8.899018E-2,8.130264E-1,-1.8673795E-1,-1.3813606E-1,2.5040248E-1,9.8581605E-2,-1.7455064E-1,1.1036104E0,5.011058E-1,1.658128E-3,-8.191375E-2,-3.7934205E-1,-2.4130674E-2,3.10816E-1,3.785061E-1,5.2144E-2,8.322424E-1,-5.293958E-1,-4.2884126E-1,-1.01414785E-1,1.8751062E-3,-1.4441074E-1,9.557506E-3,-2.0169513E-1,3.3056435E-1,5.481163E-2,-2.792358E-1,-2.128983E-3,-1.4706205E-1,-7.7455044E-2,2.8011194E-1,-1.5822892E-1,1.2655415E-1,-2.7616927E-1,8.293859E-3,1.4545476E-1,-1.328799E-1,3.8755968E-1,4.0813975E-2,3.0424812E-1,3.837988E-2,-1.8346241E-1,2.6350347E-3,-6.429743E-2,-1.234511E-2,-2.2151557E-1,2.7366292E-1,1.2386901E-2,9.852543E-2,6.148608E-2,3.077865E-1,-1.9429183E-1,-5.257198E-2,-1.711895E-2,-1.3085541E-1,2.1925804E-1,4.899805E-4],"categories":[],"categories_nodes":[],"categories_segments":[],"categories_sizes":[],"default_left":[0,0,0,0,0,0,0,0,0,0,0,0,0,0,0,0,0,0,0,0,0,0,0,0,0,0,0,0,0,0,0,0,0,0,0,0,0,0,0,0,0,0,0,0,0,0,0,0,0,0,0,0,0,0,0,0,0,0,0,0,0,0,0,0,0,0,0,0,0,0,0,0,0,0,0,0,0,0,0,0,0,0,0,0,0,0,0,0,0,0,0],"id":7,"left_children":[1,3,5,7,9,11,13,15,17,19,21,23,25,27,29,31,33,-1,35,37,-1,39,41,43,45,-1,-1,47,49,51,53,55,57,59,61,63,65,67,69,-1,-1,71,73,75,77,-1,-1,-1,79,81,83,85,-1,87,89,-1,-1,-1,-1,-1,-1,-1,-1,-1,-1,-1,-1,-1,-1,-1,-1,-1,-1,-1,-1,-1,-1,-1,-1,-1,-1,-1,-1,-1,-1,-1,-1,-1,-1,-1,-1],"loss_changes":[1.3614489E0,6.812699E0,3.033373E0,2.918057E0,5.2010574E0,2.9461842E0,2.6085732E0,4.4562707E0,3.7582839E0,3.8932443E0,2.6055412E0,4.402158E0,5.6809497E-1,3.382079E0,9.221485E0,3.0399919E0,5.9180603E0,0E0,4.6916065E0,1.50002E0,0E0,1.174469E0,1.8991394E0,2.8101292E0,1.5426793E0,0E0,0E0,4.3971872E-1,2.5454512E0,3.4874535E-1,2.7822769E0,2.2305655E0,4.664978E0,1.722786E0,5.4596667E0,2.1119022E0,1.7718256E0,3.5235684E0,2.7722783E0,0E0,0E0,1.6363497E0,3.684721E0,3.3168266E0,4.626878E0,0E0,0E0,0E0,3.7929902E0,1.7781534E0,3.022499E-1,3.288871E-2,0E0,3.9232962E0,2.382881E0,0E0,0E0,0E0,0E0,0E0,0E0,0E0,0E0,0E0,0E0,0E0,0E0,0E0,0E0,0E0,0E0,0E0,0E0,0E0,0E0,0E0,0E0,0E0,0E0,0E0,0E0,0E0,0E0,0E0,0E0,0E0,0E0,0E0,0E0,0E0,0E0],"parents":[2147483647,0,0,1,1,2,2,3,3,4,4,5,5,6,6,7,7,8,8,9,9,10,10,11,11,12,12,13,13,14,14,15,15,16,16,18,18,19,19,21,21,22,22,23,23,24,24,27,27,28,28,29,29,30,30,31,31,32,32,33,33,34,34,35,35,36,36,37,37,38,38,41,41,42,42,43,43,44,44,48,48,49,49,50,50,51,51,53,53,54,54],"right_children":[2,4,6,8,10,12,14,16,18,20,22,24,26,28,30,32,34,-1,36,38,-1,40,42,44,46,-1,-1,48,50,52,54,56,58,60,62,64,66,68,70,-1,-1,72,74,76,78,-1,-1,-1,80,82,84,86,-1,88,90,-1,-1,-1,-1,-1,-1,-1,-1,-1,-1,-1,-1,-1,-1,-1,-1,-1,-1,-1,-1,-1,-1,-1,-1,-1,-1,-1,-1,-1,-1,-1,-1,-1,-1,-1,-1],"split_conditions":[2.028315E3,2.027201E3,2.060918E3,2.027195E3,5.080606E1,2.307E3,2.159128E3,2.02526E3,3.8483513E1,6.33E2,2.25E2,1.747E3,2.0413524E3,2.694258E1,2.158364E3,2.025849E3,1.71E2,-2.4753843E-1,6.1963448E1,3.42E2,3.3142462E-1,2.027249E3,2.83E2,3.07E2,2.04132E3,3.8828865E-2,2.7383947E-1,3.71E2,1.593E3,3.61E2,2.171392E3,1.8509037E1,3.1679995E1,4.4561535E1,4.28E2,2.37E2,3.35E2,3.6403503E1,4.4561535E1,9.8581605E-2,-1.7455064E-1,6.769305E1,5.8136494E1,2.7773287E1,3.37E2,-3.7934205E-1,-2.4130674E-2,3.10816E-1,4.49E2,2.1595698E3,2.130782E3,6.147245E1,-4.2884126E-1,5.9E2,2.1677083E3,-1.4441074E-1,9.557506E-3,-2.0169513E-1,3.3056435E-1,5.481163E-2,-2.792358E-1,-2.128983E-3,-1.4706205E-1,-7.7455044E-2,2.8011194E-1,-1.5822892E-1,1.2655415E-1,-2.7616927E-1,8.293859E-3,1.4545476E-1,-1.328799E-1,3.8755968E-1,4.0813975E-2,3.0424812E-1,3.837988E-2,-1.8346241E-1,2.6350347E-3,-6.429743E-2,-1.234511E-2,-2.2151557E-1,2.7366292E-1,1.2386901E-2,9.852543E-2,6.148608E-2,3.077865E-1,-1.9429183E-1,-5.257198E-2,-1.711895E-2,-1.3085541E-1,2.1925804E-1,4.899805E-4],"split_indices":[1,0,2,3,6,4,2,3,6,4,4,4,5,6,5,0,4,0,6,4,0,5,4,4,0,0,0,4,4,4,1,6,6,6,4,4,4,6,6,0,0,6,6,6,4,0,0,0,4,5,2,6,0,4,5,0,0,0,0,0,0,0,0,0,0,0,0,0,0,0,0,0,0,0,0,0,0,0,0,0,0,0,0,0,0,0,0,0,0,0,0],"split_type":[0,0,0,0,0,0,0,0,0,0,0,0,0,0,0,0,0,0,0,0,0,0,0,0,0,0,0,0,0,0,0,0,0,0,0,0,0,0,0,0,0,0,0,0,0,0,0,0,0,0,0,0,0,0,0,0,0,0,0,0,0,0,0,0,0,0,0,0,0,0,0,0,0,0,0,0,0,0,0,0,0,0,0,0,0,0,0,0,0,0,0],"sum_hessian":[1.7297932E4,1.2748406E3,1.6023091E4,1.2000244E3,7.481617E1,1.6239473E3,1.4399144E4,1.1785826E3,2.1441729E1,4.319931E1,3.161686E1,1.6194688E3,4.478503E0,6.064175E2,1.3792726E4,1.0018491E3,1.7673347E2,1.4974089E0,1.9944319E1,4.0701942E1,2.497367E0,3.7451384E0,2.7871721E1,1.6147582E3,4.710593E0,1.7309695E0,2.7475338E0,6.716871E0,5.997006E2,5.7027054E0,1.3787023E4,9.958616E2,5.987605E0,1.1463434E1,1.6527005E2,1.3471899E1,6.4724197E0,2.5968206E1,1.4733738E1,1.9965948E0,1.7485435E0,8.948476E0,1.8923244E1,7.569014E2,8.5785675E2,2.993421E0,1.7171721E0,2.4837115E0,4.2331595E0,5.964828E2,3.2178192E0,2.4955258E0,3.2071795E0,2.649143E2,1.3522109E4,7.544307E0,9.8831726E2,1.2452112E0,4.742394E0,1.2483094E0,1.0215124E1,1.3809976E2,2.7170282E1,1.2486773E0,1.2223222E1,4.2349854E0,2.2374344E0,3.7441962E0,2.222401E1,1.1235297E1,3.4984403E0,7.2104025E0,1.7380736E0,7.2449284E0,1.1678317E1,7.7197456E0,7.491817E2,2.0092798E2,6.569288E2,1.2447457E0,2.9884138E0,5.750399E2,2.1442871E1,1.2448188E0,1.9730004E0,1.2496239E0,1.2459021E0,2.3495677E2,2.9957531E1,3.482514E0,1.3518626E4],"tree_param":{"num_deleted":"0","num_feature":"7","num_nodes":"91","size_leaf_vector":"1"}},{"base_weights":[3.1013307E-5,4.0769735E-3,-1.944622E-2,-2.3903898E-3,4.6480764E-2,-5.2556857E-2,1.6898638E-2,3.1484387E-4,-1.6313587E-1,5.05506E-1,4.175244E-2,-4.396831E-2,-3.7812233E-1,1.9848426E-1,7.2448743E-3,6.7196786E-4,-5.63524E-1,-5.879566E-1,-1.1107336E-1,6.6966176E-1,5.65063E-2,-4.3817293E-2,7.3315784E-2,-3.4375448E-2,-2.5816315E-1,-6.0362625E-1,3.1812274E-1,3.7730074E-1,-1.0989261E-1,1.8461552E-2,-1.6368803E-1,7.3170218E-6,3.6535317E-1,-2.8789738E-1,1.5180498E-1,1.8808787E-1,-6.9016665E-1,-3.2025436E-1,2.6910547E-2,2.8792062E-1,2.4238832E-1,-2.094218E-1,5.765903E-1,-6.292432E-3,-4.152967E-1,3.2341793E-1,4.185574E-2,-3.408483E-1,-3.2645985E-2,3.7070208E-3,-3.9452043E-1,1.2621468E-1,-6.7114806E-1,-2.6566764E-2,7.804813E-1,-3.335555E-1,4.831754E-1,-3.3522382E-1,5.9531784E-1,1.4533082E-2,4.5742482E-1,-6.73487E-1,-1.0602791E-2,1.6929432E-4,-1.8156919E-1,-2.8706652E-1,1.5746118E-1,8.17992E-3,-2.704669E-1,2.250193E-1,-1.2664992E-1,7.66626E-2,-1.7030427E-2,-1.16356745E-1,2.6765564E-1,2.9611284E-1,-6.869286E-2,-1.7811287E-2,4.7192145E-2,-1.9532368E-1,4.930726E-2,2.0441613E-1,7.8424916E-2,6.71324E-2,7.6021776E-3,2.0470738E-1,-1.0712564E-2,-7.3954284E-2,1.7676722E-1,-2.626804E-1,-6.0031224E-2,4.4929405E-4,-2.3532686E-1,2.3516165E-1,-1.74553E-1,3.5702163E-1,2.5724053E-2,-7.945974E-3,-1.767034E-1,-1.2004659E-1,1.5837514E-1,-2.7875042E-1,-4.616908E-2,3.1982648E-1,1.25161735E-2,-3.0369127E-2,8.295743E-3,4.4070244E-2,3.12334E-1,-2.3606025E-1,1.8332785E-2,-1.7876385E-2,3.0922398E-1],"categories":[],"categories_nodes":[],"categories_segments":[],"categories_sizes":[],"default_left":[0,0,0,0,0,0,0,0,0,0,0,0,0,0,0,0,0,0,0,0,0,0,0,0,0,0,0,0,0,0,0,0,0,0,0,0,0,0,0,0,0,0,0,0,0,0,0,0,0,0,0,0,0,0,0,0,0,0,0,0,0,0,0,0,0,0,0,0,0,0,0,0,0,0,0,0,0,0,0,0,0,0,0,0,0,0,0,0,0,0,0,0,0,0,0,0,0,0,0,0,0,0,0,0,0,0,0,0,0,0,0,0,0],"id":8,"left_children":[1,3,5,7,9,11,13,15,17,19,21,23,25,27,29,31,33,35,37,39,41,43,45,47,49,51,53,55,57,59,61,63,65,-1,-1,-1,67,69,71,-1,73,-1,75,77,79,81,83,-1,85,87,89,-1,91,93,95,97,99,101,103,105,107,109,111,-1,-1,-1,-1,-1,-1,-1,-1,-1,-1,-1,-1,-1,-1,-1,-1,-1,-1,-1,-1,-1,-1,-1,-1,-1,-1,-1,-1,-1,-1,-1,-1,-1,-1,-1,-1,-1,-1,-1,-1,-1,-1,-1,-1,-1,-1,-1,-1,-1,-1],"loss_changes":[1.3629842E0,3.9275067E0,3.5808456E0,5.40388E0,4.092309E0,4.336786E0,2.4859183E0,2.4614232E0,4.4836416E0,1.3797565E0,5.072693E0,3.1103325E0,6.454279E0,3.989113E0,2.5881877E0,2.9608235E0,3.763842E0,3.1920443E0,5.3326054E0,1.5015306E0,2.8518703E0,7.056573E0,1.07783165E1,2.7337549E0,2.3195887E0,2.3900175E0,1.6802174E0,3.5885305E0,4.4980044E0,2.1768656E0,6.480646E0,4.1111765E0,5.189447E0,0E0,0E0,0E0,3.2052574E0,8.32193E0,2.1584492E0,0E0,3.2110255E0,0E0,1.6287465E0,4.0121627E0,6.4548826E0,3.2199326E0,3.6581314E0,0E0,3.2058086E0,3.5471404E0,3.8184652E0,0E0,2.2087784E0,3.5758648E0,1.1728258E0,4.938801E-1,1.7938709E0,2.133713E0,1.75651E0,1.9103563E0,1.8767769E0,1.6457462E0,3.3745153E0,0E0,0E0,0E0,0E0,0E0,0E0,0E0,0E0,0E0,0E0,0E0,0E0,0E0,0E0,0E0,0E0,0E0,0E0,0E0,0E0,0E0,0E0,0E0,0E0,0E0,0E0,0E0,0E0,0E0,0E0,0E0,0E0,0E0,0E0,0E0,0E0,0E0,0E0,0E0,0E0,0E0,0E0,0E0,0E0,0E0,0E0,0E0,0E0,0E0,0E0],"parents":[2147483647,0,0,1,1,2,2,3,3,4,4,5,5,6,6,7,7,8,8,9,9,10,10,11,11,12,12,13,13,14,14,15,15,16,16,17,17,18,18,19,19,20,20,21,21,22,22,23,23,24,24,25,25,26,26,27,27,28,28,29,29,30,30,31,31,32,32,36,36,37,37,38,38,40,40,42,42,43,43,44,44,45,45,46,46,48,48,49,49,50,50,52,52,53,53,54,54,55,55,56,56,57,57,58,58,59,59,60,60,61,61,62,62],"right_children":[2,4,6,8,10,12,14,16,18,20,22,24,26,28,30,32,34,36,38,40,42,44,46,48,50,52,54,56,58,60,62,64,66,-1,-1,-1,68,70,72,-1,74,-1,76,78,80,82,84,-1,86,88,90,-1,92,94,96,98,100,102,104,106,108,110,112,-1,-1,-1,-1,-1,-1,-1,-1,-1,-1,-1,-1,-1,-1,-1,-1,-1,-1,-1,-1,-1,-1,-1,-1,-1,-1,-1,-1,-1,-1,-1,-1,-1,-1,-1,-1,-1,-1,-1,-1,-1,-1,-1,-1,-1,-1,-1,-1,-1,-1],"split_conditions":[2.6428748E3,2.544854E3,2.674971E3,2.5179692E3,1.51E2,7.204976E1,2.6805505E3,2.521001E3,3.559446E1,5.697218E1,4.44E2,2.672676E3,1.024E3,7.89E2,6.83943E1,2.518079E3,1.418E3,2.65E2,4.44E2,2.627246E3,5.8276344E1,4.26E2,4.98E2,1.04E2,4.659716E1,2.646338E3,2.6633E3,2.675843E3,1.418E3,6.769305E1,6.95791E1,2.518089E3,4.9902225E1,-2.8789738E-1,1.5180498E-1,1.8808787E-1,2.515633E3,4.1442272E1,4.7925125E1,2.8792062E-1,2.629628E3,-2.094218E-1,6.1963448E1,2.633204E3,2.6296084E3,2.5723625E3,2.565774E3,-3.408483E-1,1.34E2,4.2995113E1,5.2808636E1,1.2621468E-1,4.1E2,2.652672E3,2.670706E3,2.67495E3,3.9675705E1,5.245392E1,1.657E3,2.688202E3,7.33E2,2.763455E3,1.849E3,1.6929432E-4,-1.8156919E-1,-2.8706652E-1,1.5746118E-1,8.17992E-3,-2.704669E-1,2.250193E-1,-1.2664992E-1,7.66626E-2,-1.7030427E-2,-1.16356745E-1,2.6765564E-1,2.9611284E-1,-6.869286E-2,-1.7811287E-2,4.7192145E-2,-1.9532368E-1,4.930726E-2,2.0441613E-1,7.8424916E-2,6.71324E-2,7.6021776E-3,2.0470738E-1,-1.0712564E-2,-7.3954284E-2,1.7676722E-1,-2.626804E-1,-6.0031224E-2,4.4929405E-4,-2.3532686E-1,2.3516165E-1,-1.74553E-1,3.5702163E-1,2.5724053E-2,-7.945974E-3,-1.767034E-1,-1.2004659E-1,1.5837514E-1,-2.7875042E-1,-4.616908E-2,3.1982648E-1,1.25161735E-2,-3.0369127E-2,8.295743E-3,4.4070244E-2,3.12334E-1,-2.3606025E-1,1.8332785E-2,-1.7876385E-2,3.0922398E-1],"split_indices":[5,2,3,5,4,6,5,1,6,6,4,1,4,4,6,0,4,4,4,1,6,4,4,4,6,0,5,1,4,6,6,3,6,0,0,0,3,6,6,0,0,0,6,2,5,5,0,0,4,6,6,0,4,0,2,0,6,6,4,0,4,0,4,0,0,0,0,0,0,0,0,0,0,0,0,0,0,0,0,0,0,0,0,0,0,0,0,0,0,0,0,0,0,0,0,0,0,0,0,0,0,0,0,0,0,0,0,0,0,0,0,0,0],"split_type":[0,0,0,0,0,0,0,0,0,0,0,0,0,0,0,0,0,0,0,0,0,0,0,0,0,0,0,0,0,0,0,0,0,0,0,0,0,0,0,0,0,0,0,0,0,0,0,0,0,0,0,0,0,0,0,0,0,0,0,0,0,0,0,0,0,0,0,0,0,0,0,0,0,0,0,0,0,0,0,0,0,0,0,0,0,0,0,0,0,0,0,0,0,0,0,0,0,0,0,0,0,0,0,0,0,0,0,0,0,0,0,0,0],"sum_hessian":[1.7293844E4,1.43199795E4,2.9738652E3,1.2425764E4,1.8942156E3,1.5559387E3,1.4179264E3,1.222109E4,2.0467432E2,1.8233154E1,1.8759824E3,1.5170533E3,3.888543E1,7.0589516E1,1.3473369E3,1.2214352E4,6.737512E0,2.1221056E1,1.8345326E2,1.2991841E1,5.241313E0,5.054083E2,1.3705741E3,1.4531343E3,6.3919113E1,2.9472675E1,9.412756E0,4.4539303E1,2.6050219E1,1.2652057E3,8.213125E1,1.2193129E4,2.1222605E1,4.9915075E0,1.7460046E0,1.2483668E0,1.9972689E1,7.239017E1,1.1106309E2,6.9960647E0,5.9957767E0,1.9989083E0,3.2424047E0,4.599623E2,4.544599E1,1.5210268E2,1.2184714E3,1.2493782E0,1.4518849E3,2.221968E1,4.1699432E1,1.4991382E0,2.7973537E1,5.9325585E0,3.4801974E0,5.4949584E0,3.9044342E1,2.0139746E1,5.910472E0,1.2550071E3,1.0198488E1,1.818218E1,6.3949066E1,1.2182916E4,1.0212808E1,1.7465757E0,1.9476028E1,4.743794E0,1.5228895E1,5.740574E0,6.66496E1,2.9207333E1,8.185575E1,3.2483168E0,2.7474597E0,1.9987322E0,1.2436725E0,3.477687E2,1.1219358E2,3.2217762E1,1.32282295E1,2.0980553E1,1.3112213E2,1.0036573E2,1.1181057E3,5.2462945E0,1.4466385E3,1.597271E1,6.2469726E0,1.0993186E1,3.0706247E1,4.174052E0,2.3799484E1,2.2446952E0,3.6878633E0,1.7408597E0,1.7393378E0,2.9966E0,2.4983587E0,1.4993428E0,3.7545002E1,3.7458334E0,1.6393913E1,2.6938865E0,3.2165854E0,1.2706745E2,1.1279397E3,7.4739833E0,2.724505E0,1.5689453E1,2.4927266E0,6.1976467E1,1.9725996E0],"tree_param":{"num_deleted":"0","num_feature":"7","num_nodes":"113","size_leaf_vector":"1"}},{"base_weights":[5.4907712E-5,6.3494156E-4,-1.4496456E-1,-1.08481036E-4,1.8667087E-1,3.0571416E-1,-1.8831585E-1,4.146741E-4,-1.35924E-1,2.7242643E-1,-1.3983183E-1,-3.4187174E-1,-1.2684867E-1,2.0309053E-3,-4.4563107E-2,1.7773066E-2,-4.1824853E-1,1.9939266E-1,7.421326E-1,-7.126568E-1,5.309369E-1,-2.0927669E-1,4.90862E-1,9.5717487E-4,1.3440837E-1,1.9538595E-1,-7.5526E-2,-1.3148122E-1,6.2922245E-1,-8.049556E-1,-2.6228487E-1,2.665145E-1,-6.2374234E-1,2.946121E-1,-6.0199138E-2,-8.807374E-1,1.2910594E-2,-9.169155E-2,7.91656E-1,-6.474012E-2,-7.048228E-1,7.9597706E-1,-8.284635E-2,3.9260186E-2,8.249756E-5,7.057254E-2,-1.682268E-2,-4.7131233E-2,1.3693133E-1,-2.9138693E-1,-2.0174254E-2,-2.0910162E-2,-2.4302866E-1,4.6517827E-2,2.4473582E-1,-3.3837324E-1,-6.766002E-2,6.595124E-2,-1.032335E-1,1.18786044E-1,1.17353415E-2,-3.8221557E-2,-2.4086598E-1,-1.4561301E-1,-3.940144E-1,2.8770986E-1,9.112277E-2,-3.857727E-2,2.4241088E-1,-2.9000297E-1,-1.0317642E-1,3.4735712E-1,1.2400954E-1],"categories":[],"categories_nodes":[],"categories_segments":[],"categories_sizes":[],"default_left":[0,0,0,0,0,0,0,0,0,0,0,0,0,0,0,0,0,0,0,0,0,0,0,0,0,0,0,0,0,0,0,0,0,0,0,0,0,0,0,0,0,0,0,0,0,0,0,0,0,0,0,0,0,0,0,0,0,0,0,0,0,0,0,0,0,0,0,0,0,0,0,0,0],"id":9,"left_children":[1,3,5,7,9,-1,11,13,15,17,19,-1,21,23,25,27,29,31,33,35,37,39,41,43,45,47,49,51,53,55,57,59,61,-1,-1,63,-1,-1,65,67,69,71,-1,-1,-1,-1,-1,-1,-1,-1,-1,-1,-1,-1,-1,-1,-1,-1,-1,-1,-1,-1,-1,-1,-1,-1,-1,-1,-1,-1,-1,-1,-1],"loss_changes":[1.4544433E0,2.381867E0,3.6678245E0,1.2189178E0,1.9573841E0,0E0,3.7878308E0,1.2424053E0,2.8638408E0,1.7260008E0,6.111007E0,0E0,3.3765059E0,2.344816E0,4.4192514E0,4.0601315E0,1.1908178E0,2.8538473E0,1.7766418E0,1.1142845E0,1.8658793E0,4.067637E0,2.061296E0,1.450356E0,2.562577E0,6.3321595E0,3.833809E0,1.4469135E0,6.4524055E-1,9.0529156E-1,7.8763425E-1,1.3289764E0,2.504332E-1,0E0,0E0,5.5627394E-1,0E0,0E0,1.9500828E-1,2.6429331E0,8.834834E-1,3.364799E-1,0E0,0E0,0E0,0E0,0E0,0E0,0E0,0E0,0E0,0E0,0E0,0E0,0E0,0E0,0E0,0E0,0E0,0E0,0E0,0E0,0E0,0E0,0E0,0E0,0E0,0E0,0E0,0E0,0E0,0E0,0E0],"parents":[2147483647,0,0,1,1,2,2,3,3,4,4,6,6,7,7,8,8,9,9,10,10,12,12,13,13,14,14,15,15,16,16,17,17,18,18,19,19,20,20,21,21,22,22,23,23,24,24,25,25,26,26,27,27,28,28,29,29,30,30,31,31,32,32,35,35,38,38,39,39,40,40,41,41],"right_children":[2,4,6,8,10,-1,12,14,16,18,20,-1,22,24,26,28,30,32,34,36,38,40,42,44,46,48,50,52,54,56,58,60,62,-1,-1,64,-1,-1,66,68,70,72,-1,-1,-1,-1,-1,-1,-1,-1,-1,-1,-1,-1,-1,-1,-1,-1,-1,-1,-1,-1,-1,-1,-1,-1,-1,-1,-1,-1,-1,-1,-1],"split_conditions":[2.780753E3,2.763455E3,3.588012E1,8.169016E1,1.14E3,3.0571416E-1,2.780737E3,1.593E3,2.407354E3,7.89E2,1.532E3,-3.4187174E-1,7.41E2,1.469E3,2.320634E3,2.3519536E3,2.501834E3,2.780737E3,6.2135796E1,6.1629898E1,2.9366524E1,5.82E2,6.26723E1,2.1468016E1,2.626204E3,1.968E3,2.324829E3,2.344855E3,7.33E2,1.469E3,2.523716E3,5.21E2,5.12E2,2.946121E-1,-6.0199138E-2,5.1361702E1,1.2910594E-2,-9.169155E-2,4.7435806E1,5.68E2,6.0002922E1,7.8E2,-8.284635E-2,3.9260186E-2,8.249756E-5,7.057254E-2,-1.682268E-2,-4.7131233E-2,1.3693133E-1,-2.9138693E-1,-2.0174254E-2,-2.0910162E-2,-2.4302866E-1,4.6517827E-2,2.4473582E-1,-3.3837324E-1,-6.766002E-2,6.595124E-2,-1.032335E-1,1.18786044E-1,1.17353415E-2,-3.8221557E-2,-2.4086598E-1,-1.4561301E-1,-3.940144E-1,2.8770986E-1,9.112277E-2,-3.857727E-2,2.4241088E-1,-2.9000297E-1,-1.0317642E-1,3.4735712E-1,1.2400954E-1],"split_indices":[0,0,6,6,4,0,3,4,2,4,4,0,4,4,0,5,0,3,6,6,6,4,6,6,3,4,1,2,4,4,0,4,4,0,0,6,0,0,6,4,6,4,0,0,0,0,0,0,0,0,0,0,0,0,0,0,0,0,0,0,0,0,0,0,0,0,0,0,0,0,0,0,0],"split_type":[0,0,0,0,0,0,0,0,0,0,0,0,0,0,0,0,0,0,0,0,0,0,0,0,0,0,0,0,0,0,0,0,0,0,0,0,0,0,0,0,0,0,0,0,0,0,0,0,0,0,0,0,0,0,0,0,0,0,0,0,0,0,0,0,0,0,0,0,0,0,0,0,0],"sum_hessian":[1.7288787E4,1.7220904E4,6.788277E1,1.7153357E4,6.754752E1,1.6292615E0,6.625351E1,1.7088531E4,6.482729E1,5.3627853E1,1.391967E1,2.9566915E0,6.3296818E1,1.6496693E4,5.918372E2,4.2582493E1,2.2244799E1,4.764424E1,5.9836106E0,7.4742994E0,6.445371E0,5.642818E1,6.8686357E0,1.6364962E4,1.3173106E2,6.703496E1,5.2480225E2,3.4858524E1,7.7239685E0,5.197236E0,1.7047564E1,4.467729E1,2.9669511E0,4.736673E0,1.2469378E0,5.9789853E0,1.4953139E0,1.4904951E0,4.954876E0,4.4561512E1,1.186667E1,4.886897E0,1.9817389E0,8.448978E1,1.6280473E4,8.598147E1,4.574959E1,2.8691675E1,3.834328E1,3.740491E0,5.2106177E2,3.2960526E1,1.8979983E0,2.6979907E0,5.0259776E0,2.729352E0,2.4678838E0,2.228811E0,1.4818751E1,2.7998634E1,1.6678658E1,1.2406877E0,1.7262635E0,4.2328167E0,1.7461686E0,2.9703345E0,1.9845415E0,4.231825E1,2.2432637E0,5.904283E0,5.9623866E0,1.4701838E0,3.416713E0],"tree_param":{"num_deleted":"0","num_feature":"7","num_nodes":"73","size_leaf_vector":"1"}},{"base_weights":[4.603995E-6,1.5767163E-2,-3.1722623E-3,8.458128E-3,1.1373419E-1,-1.8848306E-1,-2.277675E-3,3.0932286E-1,5.997217E-3,-7.492178E-1,1.4502533E-1,-1.049802E0,-1.2322797E-1,1.0185876E-1,-3.274287E-3,-1.3377455E-1,4.8160672E-1,1.0594478E-2,-1.674454E-1,-3.40044E-1,-3.1143287E-1,5.97206E-1,1.0498259E-1,-8.801592E-2,-3.7067604E-1,2.295592E-1,-2.5310114E-1,1.5526804E-2,4.7478136E-1,-1.2889643E-1,-2.0612169E-3,1.362015E-1,-2.1554624E-1,-2.1238744E-2,9.3901587E-1,-1.226433E-2,4.5416683E-2,-1.505955E-2,-1.3349853E0,-2.5589833E-1,6.1180376E-2,9.172368E-1,-4.8720774E-1,-8.996103E-3,2.8563675E-1,1.1912687E-1,2.4190913E-1,-3.5362545E-1,-1.6052245E-1,1.8345608E-1,-2.240793E-1,1.13131404E-1,7.0480466E-1,3.8658613E-1,-2.4849413E-1,2.3310998E-4,-4.1894145E-2,9.221398E-2,-3.611855E-2,1.00858495E-1,-3.1752324E-1,1.2941208E-1,3.4190446E-1,5.136152E-3,-2.7950209E-2,-1.619185E-2,2.8647482E-2,1.8076248E-2,-2.5525814E-1,-4.3848723E-1,-1.40978E-1,1.7558916E-1,4.2683747E-1,8.189286E-2,-2.9896617E-1,2.029228E-2,-1.3489856E-1,2.3810053E-1,-2.6295558E-3,1.0633729E-1,-9.679376E-2,-6.4496145E-2,1.8527438E-1,7.238588E-2,-1.2418523E-1,-9.777299E-2,2.0617865E-1,2.1115196E-1,-1.700301E-1,3.611774E-1,1.1125322E-1,5.5709567E-2,3.9088145E-1,-8.898697E-2,2.0627402E-1,-4.5481022E-4,1.935996E-2,-4.7577076E-2,-5.714945E-4],"categories":[],"categories_nodes":[],"categories_segments":[],"categories_sizes":[],"default_left":[0,0,0,0,0,0,0,0,0,0,0,0,0,0,0,0,0,0,0,0,0,0,0,0,0,0,0,0,0,0,0,0,0,0,0,0,0,0,0,0,0,0,0,0,0,0,0,0,0,0,0,0,0,0,0,0,0,0,0,0,0,0,0,0,0,0,0,0,0,0,0,0,0,0,0,0,0,0,0,0,0,0,0,0,0,0,0,0,0,0,0,0,0,0,0,0,0,0,0],"id":10,"left_children":[1,3,5,7,9,11,13,15,17,19,21,23,25,27,29,31,33,35,37,39,-1,41,43,-1,-1,45,47,49,51,53,55,57,-1,59,61,63,65,67,69,-1,-1,71,73,75,77,79,-1,-1,81,83,85,87,89,91,93,95,97,-1,-1,-1,-1,-1,-1,-1,-1,-1,-1,-1,-1,-1,-1,-1,-1,-1,-1,-1,-1,-1,-1,-1,-1,-1,-1,-1,-1,-1,-1,-1,-1,-1,-1,-1,-1,-1,-1,-1,-1,-1,-1],"loss_changes":[8.6571324E-1,2.0754833E0,2.384809E0,1.9969566E0,5.5429792E0,3.7551816E0,1.4865304E0,1.7349138E0,2.137705E0,4.9859476E-1,3.4689221E0,3.0282354E-1,3.0536082E0,4.3640656E0,2.161421E0,1.1884928E0,3.693988E0,2.0785167E0,1.2296867E1,1.4208441E0,0E0,5.8795023E0,3.7169838E0,0E0,0E0,1.0579176E0,3.9466665E0,4.5190334E0,2.0407567E0,8.459247E0,1.2841011E0,2.8153998E-1,0E0,3.5391364E0,3.627119E-1,3.7500782E0,5.155044E0,3.9695988E0,1.8747139E-1,0E0,0E0,1.2537956E0,1.906063E0,3.7985241E0,1.0448929E1,1.8171304E0,0E0,0E0,2.0411952E0,2.3794036E0,4.5214834E0,4.8573327E0,2.1187282E0,4.532744E0,5.1920195E0,1.4944301E0,3.5707178E0,0E0,0E0,0E0,0E0,0E0,0E0,0E0,0E0,0E0,0E0,0E0,0E0,0E0,0E0,0E0,0E0,0E0,0E0,0E0,0E0,0E0,0E0,0E0,0E0,0E0,0E0,0E0,0E0,0E0,0E0,0E0,0E0,0E0,0E0,0E0,0E0,0E0,0E0,0E0,0E0,0E0,0E0],"parents":[2147483647,0,0,1,1,2,2,3,3,4,4,5,5,6,6,7,7,8,8,9,9,10,10,11,11,12,12,13,13,14,14,15,15,16,16,17,17,18,18,19,19,21,21,22,22,25,25,26,26,27,27,28,28,29,29,30,30,31,31,33,33,34,34,35,35,36,36,37,37,38,38,41,41,42,42,43,43,44,44,45,45,48,48,49,49,50,50,51,51,52,52,53,53,54,54,55,55,56,56],"right_children":[2,4,6,8,10,12,14,16,18,20,22,24,26,28,30,32,34,36,38,40,-1,42,44,-1,-1,46,48,50,52,54,56,58,-1,60,62,64,66,68,70,-1,-1,72,74,76,78,80,-1,-1,82,84,86,88,90,92,94,96,98,-1,-1,-1,-1,-1,-1,-1,-1,-1,-1,-1,-1,-1,-1,-1,-1,-1,-1,-1,-1,-1,-1,-1,-1,-1,-1,-1,-1,-1,-1,-1,-1,-1,-1,-1,-1,-1,-1,-1,-1,-1,-1],"split_conditions":[3.986436E1,3.9291992E1,4.003979E1,1.997592E3,1.76E2,2.34E2,4.0395073E1,2.694258E1,3.909714E1,1.51E2,2.53E2,1.76E2,2.2854062E3,2.621664E3,4.074479E1,2.4777527E1,3.09E2,6.38E2,9.69E2,2.12412E3,-3.1143287E-1,2.386155E3,5.64E2,-8.801592E-2,-3.7067604E-1,2.179931E3,2.310002E3,4.33E2,5.36E2,2.89E2,1.198E3,9.69E2,-2.1554624E-1,2.85E2,4.49E2,4.98E2,2.9366524E1,2.665335E3,1.968E3,-2.5589833E-1,6.1180376E-2,2.28E2,2.28E2,5.03E2,7.41E2,4.19E2,2.4190913E-1,-3.5362545E-1,2.731493E3,2.455485E3,1.418E3,3.61E2,4.0224674E1,2.77E2,2.735223E3,1.024E3,2.367345E3,9.221398E-2,-3.611855E-2,1.00858495E-1,-3.1752324E-1,1.2941208E-1,3.4190446E-1,5.136152E-3,-2.7950209E-2,-1.619185E-2,2.8647482E-2,1.8076248E-2,-2.5525814E-1,-4.3848723E-1,-1.40978E-1,1.7558916E-1,4.2683747E-1,8.189286E-2,-2.9896617E-1,2.029228E-2,-1.3489856E-1,2.3810053E-1,-2.6295558E-3,1.0633729E-1,-9.679376E-2,-6.4496145E-2,1.8527438E-1,7.238588E-2,-1.2418523E-1,-9.777299E-2,2.0617865E-1,2.1115196E-1,-1.700301E-1,3.611774E-1,1.1125322E-1,5.5709567E-2,3.9088145E-1,-8.898697E-2,2.0627402E-1,-4.5481022E-4,1.935996E-2,-4.7577076E-2,-5.714945E-4],"split_indices":[6,6,6,2,4,4,6,6,6,4,4,4,5,0,6,6,4,4,4,0,0,0,4,0,0,0,0,4,4,4,4,4,0,4,4,4,6,0,4,0,0,4,4,4,4,4,0,0,0,1,4,4,6,4,1,4,2,0,0,0,0,0,0,0,0,0,0,0,0,0,0,0,0,0,0,0,0,0,0,0,0,0,0,0,0,0,0,0,0,0,0,0,0,0,0,0,0,0,0],"split_type":[0,0,0,0,0,0,0,0,0,0,0,0,0,0,0,0,0,0,0,0,0,0,0,0,0,0,0,0,0,0,0,0,0,0,0,0,0,0,0,0,0,0,0,0,0,0,0,0,0,0,0,0,0,0,0,0,0,0,0,0,0,0,0,0,0,0,0,0,0,0,0,0,0,0,0,0,0,0,0,0,0,0,0,0,0,0,0,0,0,0,0,0,0,0,0,0,0,0,0],"sum_hessian":[1.7286146E4,2.8988835E3,1.4387263E4,2.6986328E3,2.0025078E2,6.811335E1,1.4319149E4,2.0882616E1,2.67775E3,6.204293E0,1.9404648E2,3.7343981E0,6.437895E1,1.3477945E2,1.418437E4,5.9089327E0,1.4973682E1,2.6095212E3,6.822892E1,3.468592E0,2.735701E0,1.4653892E1,1.793926E2,1.2449219E0,2.4894762E0,1.7116413E1,4.7262543E1,1.1028906E2,2.449039E1,1.3465468E2,1.4049715E4,4.5672064E0,1.3417267E0,7.5868106E0,7.3868723E0,1.5757671E3,1.0337542E3,6.124783E1,6.981092E0,1.492838E0,1.9757538E0,1.14337435E1,3.220148E0,1.105772E2,6.881539E1,1.5378622E1,1.7377906E0,3.2304442E0,4.4032097E1,6.4981064E1,4.5307995E1,1.0101041E1,1.4389351E1,2.4937641E1,1.0971704E2,1.3285482E4,7.64233E2,2.6208785E0,1.9463277E0,6.144966E0,1.4418447E0,2.9850447E0,4.4018273E0,1.1565017E3,4.192653E2,3.4631152E2,6.874426E2,5.7036224E1,4.2116046E0,5.488054E0,1.4930384E0,8.2045145E0,3.2292285E0,1.4781374E0,1.7420108E0,9.491657E1,1.5660624E1,2.4625238E1,4.419015E1,1.0162658E1,5.2159643E0,4.182798E1,2.2041163E0,5.9789436E1,5.191626E0,4.1332054E1,3.9759407E0,5.386198E0,4.7148433E0,4.724048E0,9.665302E0,2.144008E1,3.497559E0,1.0500142E2,4.71562E0,1.2934601E4,3.5088126E2,1.9429037E2,5.6994257E2],"tree_param":{"num_deleted":"0","num_feature":"7","num_nodes":"99","size_leaf_vector":"1"}},{"base_weights":[2.2449382E-5,4.3607978E-4,-1.0447726E-1,-4.89031E-4,7.8746244E-2,2.6446652E-1,-1.3966282E-1,-2.7478862E-5,-6.870085E-1,-8.980794E-1,1.0438714E-1,-2.7718705E-1,-9.092656E-2,7.962866E-4,-1.0985256E-1,-1.0117872E0,3.317965E-1,-6.445314E-2,-3.535079E-1,2.8926218E-2,4.3228355E-1,-1.5501177E-1,3.8804957E-1,5.241828E-4,5.620705E-1,-2.6331416E-1,6.595642E-2,4.129575E-2,-4.0549245E-1,1.1952716E0,-1.2105032E-2,1.15714E0,4.9146835E-2,-4.389704E-2,-5.4436123E-1,6.331497E-1,-6.746602E-2,8.654743E-5,1.2029755E-1,6.571647E-2,3.5005283E-1,3.779328E-2,-1.216621E-1,1.6375624E-1,-2.2304717E-2,4.1800964E-1,1.4676064E-1,-2.484512E-1,5.2128937E-3,4.370434E-2,3.762514E-1,-1.4771774E-1,5.9481647E-2,-2.799895E-2,1.9026771E-1,-2.0385046E-1,-2.025595E-2,3.5696525E-2,2.4497451E-1],"categories":[],"categories_nodes":[],"categories_segments":[],"categories_sizes":[],"default_left":[0,0,0,0,0,0,0,0,0,0,0,0,0,0,0,0,0,0,0,0,0,0,0,0,0,0,0,0,0,0,0,0,0,0,0,0,0,0,0,0,0,0,0,0,0,0,0,0,0,0,0,0,0,0,0,0,0,0,0],"id":11,"left_children":[1,3,5,7,9,-1,11,13,15,17,19,-1,21,23,25,27,-1,-1,-1,29,31,33,35,37,39,41,43,-1,-1,45,47,49,51,53,55,57,-1,-1,-1,-1,-1,-1,-1,-1,-1,-1,-1,-1,-1,-1,-1,-1,-1,-1,-1,-1,-1,-1,-1],"loss_changes":[7.470719E-1,1.2472204E0,2.4872556E0,5.391567E0,5.128253E0,0E0,2.4638822E0,1.5385313E0,7.776114E0,7.513161E-1,4.8559856E0,0E0,2.0205703E0,2.5776074E0,3.4332166E0,4.170971E0,0E0,0E0,0E0,7.720387E0,1.01461E1,2.4440048E0,1.3175251E0,1.5923978E0,1.4409292E0,3.805015E0,4.067515E0,0E0,0E0,8.513737E-2,3.780513E0,1.0597382E0,2.1229293E0,1.5833234E0,7.6462555E-1,4.545598E-1,0E0,0E0,0E0,0E0,0E0,0E0,0E0,0E0,0E0,0E0,0E0,0E0,0E0,0E0,0E0,0E0,0E0,0E0,0E0,0E0,0E0,0E0,0E0],"parents":[2147483647,0,0,1,1,2,2,3,3,4,4,6,6,7,7,8,8,9,9,10,10,12,12,13,13,14,14,15,15,19,19,20,20,21,21,22,22,23,23,24,24,25,25,26,26,29,29,30,30,31,31,32,32,33,33,34,34,35,35],"right_children":[2,4,6,8,10,-1,12,14,16,18,20,-1,22,24,26,28,-1,-1,-1,30,32,34,36,38,40,42,44,-1,-1,46,48,50,52,54,56,58,-1,-1,-1,-1,-1,-1,-1,-1,-1,-1,-1,-1,-1,-1,-1,-1,-1,-1,-1,-1,-1,-1,-1],"split_conditions":[2.780753E3,2.7462864E3,3.588012E1,2.746407E3,1.46E2,2.6446652E-1,2.780737E3,2.74147E3,7.6175095E1,5.0930134E1,6.306335E1,-2.7718705E-1,7.41E2,2.742348E3,2.74267E3,2.745759E3,3.317965E-1,-6.445314E-2,-3.535079E-1,2.08E2,6.5669365E1,5.82E2,6.26723E1,2.740642E3,3.9291992E1,4.87104E1,3.27E2,4.129575E-2,-4.0549245E-1,5.38577E1,2.51E2,6.3256847E1,6.73808E1,5.68E2,6.83E2,4.659716E1,-6.746602E-2,8.654743E-5,1.2029755E-1,6.571647E-2,3.5005283E-1,3.779328E-2,-1.216621E-1,1.6375624E-1,-2.2304717E-2,4.1800964E-1,1.4676064E-1,-2.484512E-1,5.2128937E-3,4.370434E-2,3.762514E-1,-1.4771774E-1,5.9481647E-2,-2.799895E-2,1.9026771E-1,-2.0385046E-1,-2.025595E-2,3.5696525E-2,2.4497451E-1],"split_indices":[0,5,6,0,4,0,3,1,6,6,6,0,4,5,3,2,0,0,0,4,6,4,6,3,6,6,4,0,0,6,4,6,6,4,4,6,0,0,0,0,0,0,0,0,0,0,0,0,0,0,0,0,0,0,0,0,0,0,0],"split_type":[0,0,0,0,0,0,0,0,0,0,0,0,0,0,0,0,0,0,0,0,0,0,0,0,0,0,0,0,0,0,0,0,0,0,0,0,0,0,0,0,0,0,0,0,0,0,0,0,0,0,0,0,0,0,0,0,0,0,0],"sum_hessian":[1.7281574E4,1.7214434E4,6.714229E1,1.7014428E4,2.0000482E2,1.4845699E0,6.5657715E1,1.7003996E4,1.0431872E1,4.2453933E0,1.9575941E2,2.7906437E0,6.2867073E1,1.6878389E4,1.2560706E2,9.200939E0,1.2309331E0,1.7488282E0,2.496565E0,1.6002098E2,3.5738445E1,5.604485E1,6.822222E0,1.687121E4,7.178171E0,6.680021E1,5.880685E1,2.2354085E0,6.965531E0,4.482131E0,1.5553885E2,1.16595545E1,2.407889E1,4.4467274E1,1.1577575E1,4.8498807E0,1.9723414E0,1.6862287E4,8.923418E0,5.449517E0,1.7286546E0,1.7905296E1,4.8894913E1,1.2649686E1,4.6157166E1,2.739992E0,1.7421392E0,4.4785266E0,1.5106032E2,1.2395712E0,1.0419983E1,4.702E0,1.937689E1,4.2249783E1,2.217492E0,8.689814E0,2.8877609E0,1.7087946E0,3.141086E0],"tree_param":{"num_deleted":"0","num_feature":"7","num_nodes":"59","size_leaf_vector":"1"}},{"base_weights":[7.211048E-5,3.7400252E-3,-1.1933766E-2,1.4481153E-1,2.53994E-3,-3.6304113E-1,-5.783514E-3,-2.3058917E-2,3.2892394E-1,-1.7098737E-1,3.3420508E-3,-9.2148453E-1,-3.032392E-1,8.06435E-2,-1.2871465E-2,-4.2594916E-1,1.9511643E-1,3.8226712E-1,-3.1765634E-1,-2.8176123E-1,3.1591538E-1,2.077823E-1,2.402363E-3,-1.8527802E-2,-3.537038E-1,5.3377616E-1,-3.5637483E-1,-7.827372E-2,1.5520906E-1,-4.7825836E-2,1.4335573E-2,-2.4252845E-2,-5.475054E-1,2.9698625E-1,-5.6698763E-1,5.246936E-1,-7.581963E-2,-6.0880486E-2,-7.901331E-1,2.9105267E-1,8.033777E-2,-5.500076E-1,2.980086E-1,-3.3590305E-1,3.7619343E-3,-1.7097853E-2,3.2481062E-1,-3.010376E-1,-3.225209E-1,3.9329365E-2,-8.190028E-1,3.9781952E-1,1.2680785E-1,-8.6795866E-1,-4.409582E-2,2.4904063E-1,9.244677E-3,-1.1137802E-1,1.5492292E-1,-2.4124864E-1,-8.0057144E-2,2.4061191E-1,2.590256E-2,-2.496312E-1,9.200286E-3,1.2575683E-1,3.5292932E-1,-2.9071712E-1,1.6152082E-1,4.883494E-2,-1.1733914E-1,2.1642491E-2,-3.1043524E-1,-1.4173034E-1,1.2803239E-1,8.152645E-2,-2.8536853E-1,1.6580464E-1,2.4563976E-2,-2.7157119E-2,-1.6996531E-1,6.410699E-4,2.4708591E-2,-1.1663328E-1,2.137673E-1,2.5626369E-2,-3.541177E-1,-5.9022542E-2,-3.3198407E-1,1.4816712E-1,-1.8818663E-1,2.7842417E-2,1.4930642E-1,-3.8596392E-1,1.3422841E-1,6.1957728E-2,-1.7241737E-2,3.1252473E-3,2.2305231E-1,-7.046022E-2,4.462294E-3],"categories":[],"categories_nodes":[],"categories_segments":[],"categories_sizes":[],"default_left":[0,0,0,0,0,0,0,0,0,0,0,0,0,0,0,0,0,0,0,0,0,0,0,0,0,0,0,0,0,0,0,0,0,0,0,0,0,0,0,0,0,0,0,0,0,0,0,0,0,0,0,0,0,0,0,0,0,0,0,0,0,0,0,0,0,0,0,0,0,0,0,0,0,0,0,0,0,0,0,0,0,0,0,0,0,0,0,0,0,0,0,0,0,0,0,0,0,0,0,0,0],"id":12,"left_children":[1,3,5,7,9,11,13,15,17,19,21,23,25,27,29,31,33,35,-1,37,39,41,43,-1,-1,45,47,49,51,53,55,57,59,61,63,65,67,69,71,-1,73,75,77,79,81,-1,-1,83,-1,85,87,89,91,93,95,97,99,-1,-1,-1,-1,-1,-1,-1,-1,-1,-1,-1,-1,-1,-1,-1,-1,-1,-1,-1,-1,-1,-1,-1,-1,-1,-1,-1,-1,-1,-1,-1,-1,-1,-1,-1,-1,-1,-1,-1,-1,-1,-1,-1,-1],"loss_changes":[7.6100475E-1,2.2406485E0,8.7306795E0,3.4580317E0,1.8276225E0,2.045043E0,2.4363759E0,5.2982616E0,4.3511896E0,3.3476012E0,2.509815E0,1.309217E0,3.0527096E0,3.5843527E0,3.495645E0,1.0197563E0,3.2096539E0,3.4370875E0,0E0,5.5379424E0,1.7205786E0,4.2508698E0,5.9844313E0,0E0,0E0,1.4374204E0,2.1070986E0,8.47677E0,1.3656678E0,4.88299E0,2.4678202E0,1.3101166E0,9.519458E-1,3.6767364E0,8.118423E-1,2.2467985E0,7.776859E0,2.705274E0,3.2356539E0,0E0,2.0534258E0,2.4712646E0,2.9305286E0,2.8961978E0,1.6548202E0,0E0,0E0,5.4474325E0,0E0,4.8576126E0,2.1675415E0,2.3848372E0,2.2922976E0,4.5564713E0,5.3841925E0,5.1662054E0,2.7856061E0,0E0,0E0,0E0,0E0,0E0,0E0,0E0,0E0,0E0,0E0,0E0,0E0,0E0,0E0,0E0,0E0,0E0,0E0,0E0,0E0,0E0,0E0,0E0,0E0,0E0,0E0,0E0,0E0,0E0,0E0,0E0,0E0,0E0,0E0,0E0,0E0,0E0,0E0,0E0,0E0,0E0,0E0,0E0,0E0],"parents":[2147483647,0,0,1,1,2,2,3,3,4,4,5,5,6,6,7,7,8,8,9,9,10,10,11,11,12,12,13,13,14,14,15,15,16,16,17,17,19,19,20,20,21,21,22,22,25,25,26,26,27,27,28,28,29,29,30,30,31,31,32,32,33,33,34,34,35,35,36,36,37,37,38,38,40,40,41,41,42,42,43,43,44,44,47,47,49,49,50,50,51,51,52,52,53,53,54,54,55,55,56,56],"right_children":[2,4,6,8,10,12,14,16,18,20,22,24,26,28,30,32,34,36,-1,38,40,42,44,-1,-1,46,48,50,52,54,56,58,60,62,64,66,68,70,72,-1,74,76,78,80,82,-1,-1,84,-1,86,88,90,92,94,96,98,100,-1,-1,-1,-1,-1,-1,-1,-1,-1,-1,-1,-1,-1,-1,-1,-1,-1,-1,-1,-1,-1,-1,-1,-1,-1,-1,-1,-1,-1,-1,-1,-1,-1,-1,-1,-1,-1,-1,-1,-1,-1,-1,-1,-1],"split_conditions":[5.937955E1,1.17E2,5.953249E1,1.04E2,1.26E2,2.19E2,2.0277437E3,4.8151775E1,2.721278E3,2.514208E3,1.34E2,2.03234E3,2.51E2,2.019196E3,2.37543E3,2.035446E3,2.516728E3,5.5232193E1,-3.1765634E-1,2.351848E3,2.517496E3,2.028315E3,1.4E2,-1.8527802E-2,-3.537038E-1,2.322792E3,1.297E3,2.017808E3,6.0647015E1,1.04E2,2.3807393E3,2.0246637E3,4.417457E1,5.1479256E1,2.721278E3,5.3957203E1,2.161373E3,5.0930134E1,4.342009E1,2.9105267E-1,2.656524E3,2.019664E3,4.9317E1,4.9317E1,5.8834713E1,-1.7097853E-2,3.2481062E-1,8.85E2,-3.225209E-1,7.344524E1,6.1792747E1,2.028853E3,2.027249E3,6.431117E1,1.89E2,2.3792583E3,1.93E2,-1.1137802E-1,1.5492292E-1,-2.4124864E-1,-8.0057144E-2,2.4061191E-1,2.590256E-2,-2.496312E-1,9.200286E-3,1.2575683E-1,3.5292932E-1,-2.9071712E-1,1.6152082E-1,4.883494E-2,-1.1733914E-1,2.1642491E-2,-3.1043524E-1,-1.4173034E-1,1.2803239E-1,8.152645E-2,-2.8536853E-1,1.6580464E-1,2.4563976E-2,-2.7157119E-2,-1.6996531E-1,6.410699E-4,2.4708591E-2,-1.1663328E-1,2.137673E-1,2.5626369E-2,-3.541177E-1,-5.9022542E-2,-3.3198407E-1,1.4816712E-1,-1.8818663E-1,2.7842417E-2,1.4930642E-1,-3.8596392E-1,1.3422841E-1,6.1957728E-2,-1.7241737E-2,3.1252473E-3,2.2305231E-1,-7.046022E-2,4.462294E-3],"split_indices":[6,4,6,4,4,4,5,6,0,0,4,0,4,2,5,1,0,6,0,0,1,1,4,0,0,0,4,2,6,4,5,5,6,6,0,6,0,6,6,0,0,0,6,6,6,0,0,4,0,6,6,1,5,6,4,5,4,0,0,0,0,0,0,0,0,0,0,0,0,0,0,0,0,0,0,0,0,0,0,0,0,0,0,0,0,0,0,0,0,0,0,0,0,0,0,0,0,0,0,0,0],"split_type":[0,0,0,0,0,0,0,0,0,0,0,0,0,0,0,0,0,0,0,0,0,0,0,0,0,0,0,0,0,0,0,0,0,0,0,0,0,0,0,0,0,0,0,0,0,0,0,0,0,0,0,0,0,0,0,0,0,0,0,0,0,0,0,0,0,0,0,0,0,0,0,0,0,0,0,0,0,0,0,0,0,0,0,0,0,0,0,0,0,0,0,0,0,0,0,0,0,0,0,0,0],"sum_hessian":[1.7279201E4,1.3236123E4,4.0430789E3,1.1063955E2,1.3125483E4,6.8603325E1,3.9744753E3,5.8330025E1,5.2309525E1,5.941573E1,1.3066068E4,5.2421427E0,6.3361183E1,3.004581E2,3.6740173E3,2.0156324E1,3.81737E1,5.1071014E1,1.238511E0,4.8746803E1,1.0668928E1,5.8774883E1,1.3007293E4,1.4940989E0,3.7480435E0,3.2422545E0,6.011893E1,9.593907E1,2.0451904E2,1.607726E3,2.0662913E3,4.9611516E0,1.5195172E1,3.4211044E1,3.9626546E0,3.8847347E1,1.2223664E1,3.4762653E1,1.3984149E1,1.9989741E0,8.669953E0,5.71128E0,5.3063602E1,5.1079147E1,1.2956214E4,1.9932443E0,1.2490101E0,5.713833E1,2.9806027E0,8.361129E1,1.2327781E1,2.0069876E1,1.8444916E2,6.2299323E0,1.601496E3,4.2850285E1,2.023441E3,3.2125814E0,1.7485702E0,6.962497E0,8.232676E0,9.242684E0,2.496836E1,2.4732533E0,1.4894015E0,3.484911E1,3.9982376E0,4.74521E0,7.478454E0,2.1028248E1,1.37344055E1,3.2466002E0,1.0737549E1,3.200139E0,5.469815E0,1.979545E0,3.731735E0,2.3644775E1,2.9418827E1,2.5423908E1,2.5655237E1,1.269478E4,2.6143402E2,5.315362E1,3.9847069E0,8.1462875E1,2.1484203E0,4.4291453E0,7.898636E0,1.8823944E1,1.2459314E0,1.7010529E2,1.4343872E1,4.7426367E0,1.4872959E0,8.0415215E1,1.5210808E3,2.9591091E1,1.3259195E1,4.4694168E1,1.978747E3],"tree_param":{"num_deleted":"0","num_feature":"7","num_nodes":"101","size_leaf_vector":"1"}},{"base_weights":[-2.8061833E-5,2.8597338E-3,-1.4753889E-2,2.1003613E-3,3.429978E-1,-2.099597E-1,-7.739475E-3,3.0270633E-3,-1.0580634E-1,6.84606E-1,1.1343132E-1,-6.2850314E-1,-1.5278637E-1,5.369948E-1,-9.531934E-3,1.70816E-3,1.4731728E-1,-3.275456E-1,4.6899922E-2,1.6675021E-1,4.5672235E-1,7.62634E-1,-9.031516E-2,-2.620467E-1,-1.1393489E0,2.669727E-1,-2.2262949E-1,7.462313E-1,-6.294796E-2,-4.432108E-1,-6.4949756E-3,2.8956686E-3,-1.258308E-1,1.8823998E-1,-4.7915536E-1,-4.3139338E-1,5.966039E-1,4.804917E-1,-1.4100608E-1,-2.315233E-1,6.165679E-1,-7.182045E-2,3.4849754E-1,-2.2436896E-1,2.5280097E-2,-2.489927E-1,-2.8238285E-3,-1.23011746E-1,-4.1015294E-1,-3.1057974E-2,8.3597606E-1,-4.0198743E-1,-9.527469E-2,3.4433976E-1,9.8626566E-1,7.694706E-1,-7.427848E-1,1.2854059E-1,-1.4630457E-2,3.1033097E-4,6.0132E-2,5.1801186E-2,-5.7537664E-2,-2.7866114E-2,9.732648E-2,-2.5762963E-1,1.7772368E-1,-8.481335E-2,-2.7097327E-1,4.210334E-1,-1.1882961E-1,-3.4951776E-2,2.0074554E-1,3.085605E-2,-1.2339488E-1,1.0678058E-1,-1.622063E-1,-1.0801074E-2,2.8642765E-1,-7.387116E-2,1.2544373E-1,1.4084594E-1,-1.6308211E-1,8.895803E-2,-2.8223112E-1,4.0630972E-1,-8.593416E-2,-4.403287E-2,-3.3844233E-1,-2.2782902E-1,-5.3058327E-3,1.930282E-1,1.4469452E-3,6.1944794E-2,3.796747E-1,3.6846748E-1,-1.2969622E-2,-1.0429443E-1,-3.1198695E-1,1.4020472E-2,1.9161864E-1,-5.9958406E-2,-7.949251E-4],"categories":[],"categories_nodes":[],"categories_segments":[],"categories_sizes":[],"default_left":[0,0,0,0,0,0,0,0,0,0,0,0,0,0,0,0,0,0,0,0,0,0,0,0,0,0,0,0,0,0,0,0,0,0,0,0,0,0,0,0,0,0,0,0,0,0,0,0,0,0,0,0,0,0,0,0,0,0,0,0,0,0,0,0,0,0,0,0,0,0,0,0,0,0,0,0,0,0,0,0,0,0,0,0,0,0,0,0,0,0,0,0,0,0,0,0,0,0,0,0,0,0,0],"id":13,"left_children":[1,3,5,7,9,11,13,15,17,19,21,23,25,27,29,31,33,35,37,39,-1,41,43,45,47,49,51,53,-1,55,57,59,61,63,65,67,69,71,73,75,77,-1,-1,-1,79,-1,81,-1,-1,83,85,87,89,91,93,95,97,99,101,-1,-1,-1,-1,-1,-1,-1,-1,-1,-1,-1,-1,-1,-1,-1,-1,-1,-1,-1,-1,-1,-1,-1,-1,-1,-1,-1,-1,-1,-1,-1,-1,-1,-1,-1,-1,-1,-1,-1,-1,-1,-1,-1,-1],"loss_changes":[7.346766E-1,3.7299883E0,3.876769E0,1.4415449E0,2.4450467E0,2.2541432E0,2.6758778E0,2.7193716E0,4.171777E0,5.2694073E0,2.7722497E0,1.8509583E0,2.6314368E0,1.5611258E0,3.589132E0,2.1453176E0,3.4084554E0,5.0736585E0,6.061386E0,1.7534051E0,0E0,2.2724628E0,1.2693197E0,1.173173E0,1.8670559E-1,2.2253585E0,1.6922235E0,3.5888672E-1,0E0,7.456181E0,2.9782996E0,5.159304E0,2.6059892E0,4.7090235E0,3.8518376E0,2.9504538E0,4.952571E0,2.6085973E0,3.4763467E0,1.1905444E0,1.026403E0,0E0,0E0,0E0,1.6985141E0,0E0,1.9118047E0,0E0,0E0,3.1027906E0,3.002768E0,5.606642E0,2.3370638E0,4.2784733E-1,6.0920644E-1,1.6358781E0,1.4826651E0,6.3998795E0,5.672356E0,0E0,0E0,0E0,0E0,0E0,0E0,0E0,0E0,0E0,0E0,0E0,0E0,0E0,0E0,0E0,0E0,0E0,0E0,0E0,0E0,0E0,0E0,0E0,0E0,0E0,0E0,0E0,0E0,0E0,0E0,0E0,0E0,0E0,0E0,0E0,0E0,0E0,0E0,0E0,0E0,0E0,0E0,0E0,0E0],"parents":[2147483647,0,0,1,1,2,2,3,3,4,4,5,5,6,6,7,7,8,8,9,9,10,10,11,11,12,12,13,13,14,14,15,15,16,16,17,17,18,18,19,19,21,21,22,22,23,23,24,24,25,25,26,26,27,27,29,29,30,30,31,31,32,32,33,33,34,34,35,35,36,36,37,37,38,38,39,39,40,40,44,44,46,46,49,49,50,50,51,51,52,52,53,53,54,54,55,55,56,56,57,57,58,58],"right_children":[2,4,6,8,10,12,14,16,18,20,22,24,26,28,30,32,34,36,38,40,-1,42,44,46,48,50,52,54,-1,56,58,60,62,64,66,68,70,72,74,76,78,-1,-1,-1,80,-1,82,-1,-1,84,86,88,90,92,94,96,98,100,102,-1,-1,-1,-1,-1,-1,-1,-1,-1,-1,-1,-1,-1,-1,-1,-1,-1,-1,-1,-1,-1,-1,-1,-1,-1,-1,-1,-1,-1,-1,-1,-1,-1,-1,-1,-1,-1,-1,-1,-1,-1,-1,-1,-1],"split_conditions":[2.645408E3,2.64542E3,2.6463337E3,2.6428748E3,4.074479E1,4.9772205E1,2.64542E3,2.641237E3,5.4E2,3.7675816E1,4.77E2,2.646338E3,5.245392E1,2.6495032E3,2.646338E3,2.637597E3,7.344524E1,6.0002922E1,6.7E2,2.646338E3,4.5672235E-1,4.6350647E1,4.192503E1,2.6453508E3,4.609437E1,2.646307E3,2.647198E3,2.644466E3,-6.294796E-2,3.7184875E1,2.649282E3,2.63418E3,3.63E2,5.0016838E1,2.640333E3,4.87E2,6.592719E1,3.3359295E1,2.640637E3,4.26E2,2.642048E3,-7.182045E-2,3.4849754E-1,-2.2436896E-1,9.38E2,-2.489927E-1,5.82E2,-1.23011746E-1,-4.1015294E-1,2.646338E3,2.648345E3,2.6453508E3,5.6585182E1,2.644129E3,4.82E2,2.647198E3,5.6E2,2.65016E3,2.6513745E3,3.1033097E-4,6.0132E-2,5.1801186E-2,-5.7537664E-2,-2.7866114E-2,9.732648E-2,-2.5762963E-1,1.7772368E-1,-8.481335E-2,-2.7097327E-1,4.210334E-1,-1.1882961E-1,-3.4951776E-2,2.0074554E-1,3.085605E-2,-1.2339488E-1,1.0678058E-1,-1.622063E-1,-1.0801074E-2,2.8642765E-1,-7.387116E-2,1.2544373E-1,1.4084594E-1,-1.6308211E-1,8.895803E-2,-2.8223112E-1,4.0630972E-1,-8.593416E-2,-4.403287E-2,-3.3844233E-1,-2.2782902E-1,-5.3058327E-3,1.930282E-1,1.4469452E-3,6.1944794E-2,3.796747E-1,3.6846748E-1,-1.2969622E-2,-1.0429443E-1,-3.1198695E-1,1.4020472E-2,1.9161864E-1,-5.9958406E-2,-7.949251E-4],"split_indices":[3,0,5,5,6,6,0,1,4,6,4,0,6,5,0,0,6,6,4,0,0,6,6,5,6,3,1,2,0,6,3,0,4,6,5,4,6,6,2,4,2,0,0,0,4,0,4,0,0,0,1,5,6,0,4,1,4,1,5,0,0,0,0,0,0,0,0,0,0,0,0,0,0,0,0,0,0,0,0,0,0,0,0,0,0,0,0,0,0,0,0,0,0,0,0,0,0,0,0,0,0,0,0],"split_type":[0,0,0,0,0,0,0,0,0,0,0,0,0,0,0,0,0,0,0,0,0,0,0,0,0,0,0,0,0,0,0,0,0,0,0,0,0,0,0,0,0,0,0,0,0,0,0,0,0,0,0,0,0,0,0,0,0,0,0,0,0,0,0,0,0,0,0,0,0,0,0,0,0,0,0,0,0,0,0,0,0,0,0,0,0,0,0,0,0,0,0,0,0,0,0,0,0,0,0,0,0,0,0],"sum_hessian":[1.7274281E4,1.4442795E4,2.831486E3,1.4411627E4,3.1168383E1,9.721219E1,2.734274E3,1.4289877E4,1.2174942E2,1.173052E1,1.9437862E1,1.0482317E1,8.672987E1,7.9883943E0,2.7262854E3,1.4161444E4,1.2843268E2,4.9184883E1,7.256454E1,7.9905157E0,3.740005E0,3.9879384E0,1.5449924E1,6.9847527E0,3.4975638E0,1.19696245E1,7.4760254E1,6.2407246E0,1.7476699E0,1.7950895E1,2.7083345E3,1.4031772E4,1.2967181E2,1.21214195E2,7.2184787E0,4.4695587E1,4.489297E0,2.1468662E1,5.109587E1,4.4954715E0,3.495044E0,1.2497022E0,2.7382362E0,1.492074E0,1.395785E1,1.4989449E0,5.485808E0,1.4989575E0,1.9986063E0,8.475679E0,3.4939456E0,3.0146915E1,4.4613335E1,3.2439294E0,2.996795E0,3.2453015E0,1.4705594E1,1.5305608E2,2.5552786E3,1.3901798E4,1.2997536E2,2.317555E1,1.0649627E2,3.965995E1,8.1554245E1,5.4768553E0,1.7416232E0,3.520233E1,9.493256E0,2.248234E0,2.2410629E0,5.247112E0,1.622155E1,2.718789E1,2.3907982E1,1.4979193E0,2.9975522E0,1.4980175E0,1.9970266E0,8.474312E0,5.483538E0,2.9986665E0,2.4871414E0,6.727257E0,1.7484221E0,2.248729E0,1.2452166E0,2.3196493E1,6.9504232E0,3.7474437E0,4.086589E1,1.2487503E0,1.9951789E0,1.2490364E0,1.7477586E0,1.7475564E0,1.497745E0,7.243745E0,7.461849E0,1.3284651E2,2.020956E1,1.542818E2,2.4009966E3],"tree_param":{"num_deleted":"0","num_feature":"7","num_nodes":"103","size_leaf_vector":"1"}},{"base_weights":[-1.2701599E-6,-1.4499038E-2,2.7440542E-3,-1.2409752E-2,-8.4824806E-1,5.225604E-2,-1.2650276E-3,6.155777E-2,-3.347229E-2,3.7482202E-2,-1.1377165E0,-1.8897754E-1,6.433494E-2,6.379601E-2,-3.2759674E-3,7.467586E-2,-4.9466375E-1,-1.5780364E-1,5.2700597E-3,-4.0311614E-1,-1.3108356E-1,-1.1418999E-1,-8.727483E-1,7.445213E-2,-1.370101E-1,3.2741763E-2,3.7952414E-1,-3.4183273E-1,-2.26307E-3,1.02575526E-1,-7.897835E-2,-6.986118E-1,1.21934265E-1,-2.080233E-1,1.701578E-1,3.2050335E-1,-3.700633E-3,-5.058476E-1,1.678435E-2,-3.3345076E-1,-3.8374147E-1,5.736782E-2,2.874688E-1,-5.219251E-2,-3.5141066E-1,6.708476E-2,-3.3847615E-1,5.91601E-1,3.103199E-2,-1.010705E0,-1.5854385E-1,-5.2919462E-2,4.872556E-4,2.1919401E-2,9.924591E-2,7.142552E-2,-8.068168E-2,5.4307614E-2,-2.4554119E-1,-9.869522E-3,-8.126587E-2,3.4533814E-1,3.3505052E-2,-1.355902E-1,1.6748065E-1,4.4074818E-3,-4.3268275E-2,-2.8220074E-2,-3.3766606E-1,1.4044112E-1,-8.29793E-2,-3.4824705E-1,1.9241302E-1,2.1040158E-2,-4.4248313E-2,7.263679E-2,2.6775625E-1,-6.3079886E-2,1.0296566E-1,-1.6155855E-1,2.6331438E-2,1.3884722E-2,-2.281425E-1,7.7942915E-2,3.6553958E-1,-1.0697433E-1,1.7358696E-1,-3.847827E-1,-5.9272047E-2,2.0561318E-1,-8.863695E-2,-1.1092576E-2,-9.328684E-2,2.6868597E-1,4.4804885E-5],"categories":[],"categories_nodes":[],"categories_segments":[],"categories_sizes":[],"default_left":[0,0,0,0,0,0,0,0,0,0,0,0,0,0,0,0,0,0,0,0,0,0,0,0,0,0,0,0,0,0,0,0,0,0,0,0,0,0,0,0,0,0,0,0,0,0,0,0,0,0,0,0,0,0,0,0,0,0,0,0,0,0,0,0,0,0,0,0,0,0,0,0,0,0,0,0,0,0,0,0,0,0,0,0,0,0,0,0,0,0,0,0,0,0,0],"id":14,"left_children":[1,3,5,7,9,11,13,15,17,-1,19,21,23,25,27,29,31,33,35,-1,-1,37,39,41,43,45,47,49,51,53,55,57,-1,59,61,63,65,67,69,71,-1,73,75,77,-1,79,81,83,85,87,89,91,93,-1,-1,-1,-1,-1,-1,-1,-1,-1,-1,-1,-1,-1,-1,-1,-1,-1,-1,-1,-1,-1,-1,-1,-1,-1,-1,-1,-1,-1,-1,-1,-1,-1,-1,-1,-1,-1,-1,-1,-1,-1,-1],"loss_changes":[6.874832E-1,4.779954E0,2.882826E0,4.277406E0,2.0744743E0,3.1820743E0,1.7580941E0,4.477512E0,1.0292785E1,0E0,1.9036627E-1,2.5660603E0,2.1221218E0,3.9377398E0,4.4689317E0,2.560653E0,2.8850737E0,8.396381E0,4.6105814E0,0E0,0E0,2.4779086E0,6.6686153E-1,3.5783572E0,4.3214746E0,4.7129803E0,2.6411014E0,4.6054225E0,1.8106846E0,3.3730693E0,5.6091065E0,1.4037709E0,0E0,4.8425198E0,3.7698221E0,8.538111E0,4.100993E0,2.9808507E0,5.0347257E0,3.564593E0,0E0,2.40518E0,1.78931E0,3.0233276E0,0E0,4.2765374E0,5.120448E0,4.3246636E0,3.3198524E0,1.5540209E0,3.86496E0,2.7420766E0,3.728715E0,0E0,0E0,0E0,0E0,0E0,0E0,0E0,0E0,0E0,0E0,0E0,0E0,0E0,0E0,0E0,0E0,0E0,0E0,0E0,0E0,0E0,0E0,0E0,0E0,0E0,0E0,0E0,0E0,0E0,0E0,0E0,0E0,0E0,0E0,0E0,0E0,0E0,0E0,0E0,0E0,0E0,0E0],"parents":[2147483647,0,0,1,1,2,2,3,3,4,4,5,5,6,6,7,7,8,8,10,10,11,11,12,12,13,13,14,14,15,15,16,16,17,17,18,18,21,21,22,22,23,23,24,24,25,25,26,26,27,27,28,28,29,29,30,30,31,31,33,33,34,34,35,35,36,36,37,37,38,38,39,39,41,41,42,42,43,43,45,45,46,46,47,47,48,48,49,49,50,50,51,51,52,52],"right_children":[2,4,6,8,10,12,14,16,18,-1,20,22,24,26,28,30,32,34,36,-1,-1,38,40,42,44,46,48,50,52,54,56,58,-1,60,62,64,66,68,70,72,-1,74,76,78,-1,80,82,84,86,88,90,92,94,-1,-1,-1,-1,-1,-1,-1,-1,-1,-1,-1,-1,-1,-1,-1,-1,-1,-1,-1,-1,-1,-1,-1,-1,-1,-1,-1,-1,-1,-1,-1,-1,-1,-1,-1,-1,-1,-1,-1,-1,-1,-1],"split_conditions":[2.67E2,7.757221E1,2.99E2,4.4434155E1,2.029673E3,2.0167944E3,2.02384E3,2.65E2,4.91966E1,3.7482202E-2,2.43E2,2.016129E3,6.804636E1,2.022612E3,2.0232847E3,2.589137E3,2.520115E3,2.644129E3,4.9552834E1,-4.0311614E-1,-1.3108356E-1,4.2218216E1,5.9247814E1,6.3256847E1,2.97E2,2.022601E3,3.73E2,2.023344E3,2.0355891E3,2.4123564E3,2.08E2,3.212818E1,1.21934265E-1,2.034968E3,2.649282E3,1.51E2,2.645441E3,4.074479E1,5.2695362E1,2.017151E3,-3.8374147E-1,6.0798565E1,6.769305E1,7.420997E1,-3.5141066E-1,3.02E2,3.7430973E1,3.42E2,4.79E2,5.3605938E1,2.0209302E3,7.26E2,2.030511E3,2.1919401E-2,9.924591E-2,7.142552E-2,-8.068168E-2,5.4307614E-2,-2.4554119E-1,-9.869522E-3,-8.126587E-2,3.4533814E-1,3.3505052E-2,-1.355902E-1,1.6748065E-1,4.4074818E-3,-4.3268275E-2,-2.8220074E-2,-3.3766606E-1,1.4044112E-1,-8.29793E-2,-3.4824705E-1,1.9241302E-1,2.1040158E-2,-4.4248313E-2,7.263679E-2,2.6775625E-1,-6.3079886E-2,1.0296566E-1,-1.6155855E-1,2.6331438E-2,1.3884722E-2,-2.281425E-1,7.7942915E-2,3.6553958E-1,-1.0697433E-1,1.7358696E-1,-3.847827E-1,-5.9272047E-2,2.0561318E-1,-8.863695E-2,-1.1092576E-2,-9.328684E-2,2.6868597E-1,4.4804885E-5],"split_indices":[4,6,4,6,0,5,1,4,6,0,4,2,6,0,5,0,0,0,6,0,0,6,6,6,4,5,4,3,5,5,4,6,0,3,3,4,2,6,6,1,0,6,6,6,0,4,6,4,4,6,5,4,2,0,0,0,0,0,0,0,0,0,0,0,0,0,0,0,0,0,0,0,0,0,0,0,0,0,0,0,0,0,0,0,0,0,0,0,0,0,0,0,0,0,0],"split_type":[0,0,0,0,0,0,0,0,0,0,0,0,0,0,0,0,0,0,0,0,0,0,0,0,0,0,0,0,0,0,0,0,0,0,0,0,0,0,0,0,0,0,0,0,0,0,0,0,0,0,0,0,0,0,0,0,0,0,0,0,0,0,0,0,0,0,0,0,0,0,0,0,0,0,0,0,0,0,0,0,0,0,0,0,0,0,0,0,0,0,0,0,0,0,0],"sum_hessian":[1.7270979E4,2.7490825E3,1.4521896E4,2.7432234E3,5.8593426E0,1.0868846E3,1.3435012E4,6.0758405E2,2.1356392E3,1.4735771E0,4.3857656E0,5.112843E1,1.0357562E3,4.018849E2,1.3033127E4,5.9443054E2,1.3153479E1,5.0664587E2,1.6289934E3,2.6803436E0,1.7054216E0,4.7139534E1,3.9888937E0,9.868016E2,4.8954628E1,3.669011E2,3.4983803E1,3.787264E1,1.2995254E4,5.0336484E2,9.106571E1,1.0909141E1,2.244338E0,4.3968417E2,6.696168E1,4.411317E1,1.5848802E3,1.1096138E1,3.6043396E1,2.496477E0,1.4924169E0,9.147096E2,7.2091995E1,4.6215416E1,2.7392128E0,3.3658173E2,3.0319365E1,2.1314896E1,1.3668905E1,7.174954E0,3.0697685E1,6.682869E2,1.2326968E4,4.4690262E2,5.6462204E1,3.402358E1,5.704213E1,1.2470185E0,9.662123E0,1.16542076E2,3.2314212E2,2.7157652E0,6.424591E1,1.017028E1,3.394289E1,1.4022487E3,1.8263158E2,7.3584237E0,3.7377145E0,1.396434E1,2.2079056E1,1.2471634E0,1.2493135E0,8.6167194E2,5.303764E1,6.836825E1,3.7237513E0,3.3350933E1,1.2864482E1,1.0290471E1,3.2629126E2,1.632517E1,1.3994193E1,1.486271E1,6.452186E0,8.207813E0,5.461092E0,4.944266E0,2.230688E0,3.7258472E0,2.6971838E1,6.30473E2,3.7813934E1,3.6517944E0,1.2323315E4],"tree_param":{"num_deleted":"0","num_feature":"7","num_nodes":"95","size_leaf_vector":"1"}},{"base_weights":[-5.5370867E-5,-1.5903857E-3,2.4694437E-2,-1.1822174E-3,-1.1124514E0,8.875945E-2,-1.8264258E-2,-1.303718E-3,2.3689716E-1,-1.6341309E-1,-4.091424E-1,1.5583602E-1,-1.2668538E-1,7.010187E-3,-2.2162879E-1,-5.777274E-4,-1.8829472E-1,7.885586E-2,3.535686E-1,-3.7143394E-1,1.7156132E-1,-2.1835716E-2,4.8504806E-1,-9.20609E-1,-1.6584767E-1,-8.3139556E-4,2.5733703E-1,-2.912246E-1,2.0199023E-1,3.7941438E-1,9.841435E-3,1.9586885E-1,6.65433E-1,-1.6619319E-1,-6.9166225E-1,5.0283986E-1,-2.0670773E-1,5.335247E-1,-3.2587983E-2,6.386299E-1,-6.169953E-2,-9.844874E-3,-3.9618683E-1,-4.869997E-1,-5.7623014E-2,-2.2044369E-4,-2.0871751E-1,-1.8448506E-1,1.7949224E-1,3.9162774E-2,-1.3384129E-1,3.4535417E-1,-2.549699E-3,2.6986706E-1,5.8187746E-2,-1.3374688E-1,2.5482425E-2,7.749887E-2,-9.776385E-2,3.2792416E-1,1.1909083E-1,-1.7571701E-1,2.0237058E-2,3.8782672E-3,-2.8861326E-1,1.8907355E-1,-3.033787E-1,1.4046976E-1,-2.1136713E-1,1.3294936E-2,3.9083964E-1,-1.9769674E-2,2.3802863E-2,9.196067E-2,3.2931563E-1,2.5608224E-1,-1.2666167E-1,1.0662735E-1,-1.954061E-1,1.0362427E-1,-8.7187015E-2],"categories":[],"categories_nodes":[],"categories_segments":[],"categories_sizes":[],"default_left":[0,0,0,0,0,0,0,0,0,0,0,0,0,0,0,0,0,0,0,0,0,0,0,0,0,0,0,0,0,0,0,0,0,0,0,0,0,0,0,0,0,0,0,0,0,0,0,0,0,0,0,0,0,0,0,0,0,0,0,0,0,0,0,0,0,0,0,0,0,0,0,0,0,0,0,0,0,0,0,0,0],"id":15,"left_children":[1,3,5,7,9,11,13,15,-1,-1,-1,17,19,21,23,25,27,29,31,33,35,37,39,41,43,45,47,49,51,53,55,57,59,61,63,65,67,69,71,73,75,-1,-1,77,79,-1,-1,-1,-1,-1,-1,-1,-1,-1,-1,-1,-1,-1,-1,-1,-1,-1,-1,-1,-1,-1,-1,-1,-1,-1,-1,-1,-1,-1,-1,-1,-1,-1,-1,-1,-1],"loss_changes":[6.5602016E-1,7.3708944E0,2.7769365E0,1.5628545E0,1.0920286E-1,5.871704E0,3.1085045E0,2.2062569E0,0E0,0E0,0E0,4.6793604E0,7.1219306E0,7.437896E0,2.4538338E0,1.059497E0,2.5837877E0,4.6401525E0,4.1174736E0,3.3964262E0,5.6512218E0,3.0563881E0,2.6168938E0,1.633203E0,2.1661234E0,1.0851395E0,5.100496E0,3.3346605E0,2.7484732E0,3.8558202E0,6.3035526E0,1.9997883E0,2.8484335E0,3.3600433E0,3.927617E0,5.2460184E0,7.512846E0,3.6016386E0,1.870249E0,3.3304758E0,2.8824978E0,0E0,0E0,2.4160306E0,4.6410465E0,0E0,0E0,0E0,0E0,0E0,0E0,0E0,0E0,0E0,0E0,0E0,0E0,0E0,0E0,0E0,0E0,0E0,0E0,0E0,0E0,0E0,0E0,0E0,0E0,0E0,0E0,0E0,0E0,0E0,0E0,0E0,0E0,0E0,0E0,0E0,0E0],"parents":[2147483647,0,0,1,1,2,2,3,3,4,4,5,5,6,6,7,7,11,11,12,12,13,13,14,14,15,15,16,16,17,17,18,18,19,19,20,20,21,21,22,22,23,23,24,24,25,25,26,26,27,27,28,28,29,29,30,30,31,31,32,32,33,33,34,34,35,35,36,36,37,37,38,38,39,39,40,40,43,43,44,44],"right_children":[2,4,6,8,10,12,14,16,-1,-1,-1,18,20,22,24,26,28,30,32,34,36,38,40,42,44,46,48,50,52,54,56,58,60,62,64,66,68,70,72,74,76,-1,-1,78,80,-1,-1,-1,-1,-1,-1,-1,-1,-1,-1,-1,-1,-1,-1,-1,-1,-1,-1,-1,-1,-1,-1,-1,-1,-1,-1,-1,-1,-1,-1,-1,-1,-1,-1,-1,-1],"split_conditions":[2.704034E3,2.706303E3,2.73355E3,2.704917E3,3.559446E1,7.71E2,1.14E3,2.6966938E3,2.3689716E-1,-1.6341309E-1,-4.091424E-1,5.71E2,1.092E3,9.24E2,1.168E3,2.696775E3,5.8834713E1,2.53E2,5.697218E1,5.4422565E1,2.727894E3,3.1199224E1,6.26723E1,2.7406472E3,3.8072163E1,2.696933E3,5.46E2,3.613593E1,6.0318653E1,4.9432587E1,2.77E2,5.4313614E1,6.2E2,2.7213242E3,2.711153E3,7.142178E1,1.469E3,2.7462864E3,6.1127808E1,5.1479256E1,2.7346636E3,-9.844874E-3,-3.9618683E-1,2.738367E3,5.0016838E1,-2.2044369E-4,-2.0871751E-1,-1.8448506E-1,1.7949224E-1,3.9162774E-2,-1.3384129E-1,3.4535417E-1,-2.549699E-3,2.6986706E-1,5.8187746E-2,-1.3374688E-1,2.5482425E-2,7.749887E-2,-9.776385E-2,3.2792416E-1,1.1909083E-1,-1.7571701E-1,2.0237058E-2,3.8782672E-3,-2.8861326E-1,1.8907355E-1,-3.033787E-1,1.4046976E-1,-2.1136713E-1,1.3294936E-2,3.9083964E-1,-1.9769674E-2,2.3802863E-2,9.196067E-2,3.2931563E-1,2.5608224E-1,-1.2666167E-1,1.0662735E-1,-1.954061E-1,1.0362427E-1,-8.7187015E-2],"split_indices":[2,1,2,0,6,4,4,5,0,0,0,4,4,4,4,3,6,4,6,6,1,6,6,5,6,0,4,6,6,6,4,6,4,5,5,6,4,5,6,6,5,0,0,0,6,0,0,0,0,0,0,0,0,0,0,0,0,0,0,0,0,0,0,0,0,0,0,0,0,0,0,0,0,0,0,0,0,0,0,0,0],"split_type":[0,0,0,0,0,0,0,0,0,0,0,0,0,0,0,0,0,0,0,0,0,0,0,0,0,0,0,0,0,0,0,0,0,0,0,0,0,0,0,0,0,0,0,0,0,0,0,0,0,0,0,0,0,0,0,0,0,0,0,0,0,0,0,0,0,0,0,0,0,0,0,0,0,0,0,0,0,0,0,0,0],"sum_hessian":[1.7265598E4,1.6258181E4,1.0074174E3,1.6253209E4,4.9709206E0,4.0394357E2,6.034739E2,1.6251711E4,1.498479E0,2.497309E0,2.4736116E0,3.082498E2,9.569378E1,5.3762286E2,6.5851036E1,1.6189857E4,6.185385E1,2.2287868E2,8.537111E1,5.2426178E1,4.3267605E1,5.0792764E2,2.9695198E1,3.7209322E0,6.2130104E1,1.6174945E4,1.4911847E1,4.914631E1,1.2707541E1,4.0780697E1,1.8209798E2,5.7781116E1,2.758999E1,3.2874947E1,1.9551231E1,2.2890959E1,2.0376646E1,8.723707E0,4.9920395E2,2.305186E1,6.6433377E0,1.4918808E0,2.2290514E0,1.4777781E1,4.7352325E1,1.6173698E4,1.2469261E0,3.9649603E0,1.0946887E1,1.3244383E1,3.5901924E1,1.495335E0,1.1212207E1,9.706511E0,3.1074188E1,2.5067307E1,1.5703067E2,5.2054348E1,5.7267694E0,9.455803E0,1.8134188E1,1.1220731E1,2.1654217E1,5.6860647E0,1.3865167E1,2.1652723E1,1.2382348E0,8.675142E0,1.1701504E1,5.9790373E0,2.74467E0,3.8502942E2,1.1417454E2,1.43436775E1,8.708183E0,1.4907057E0,5.152632E0,2.22265E0,1.255513E1,1.7169888E1,3.0182436E1],"tree_param":{"num_deleted":"0","num_feature":"7","num_nodes":"81","size_leaf_vector":"1"}},{"base_weights":[-1.9911953E-5,3.2641736E-4,-9.1126926E-2,-3.9995703E-4,4.6207704E-2,3.6919493E-2,-3.2283872E-1,3.582531E-4,-9.4803035E-2,-6.081376E-1,5.8083538E-2,-1.6336463E-1,3.699496E-1,-5.851523E-1,-1.3430111E-1,2.4521572E-3,-1.2055773E-2,6.550654E-2,-2.776524E-1,-7.080489E-1,-5.163555E-2,3.5166782E-1,4.4174153E-2,1.1633678E-1,-4.9327013E-1,-8.080177E-2,4.5820892E-1,-3.755963E-1,-2.3810896E-1,2.0592393E-2,-4.649708E-1,1.8359566E-3,1.3354172E-1,-1.6363078E-1,1.8224019E-3,1.7259154E-2,3.865E-1,-7.663991E-1,-1.7676657E-1,-2.9670227E-1,-2.5777454E-2,2.6697228E-3,2.3027694E-1,-2.016292E-1,5.006798E-1,-2.5647768E-1,-2.7952093E-1,8.149984E-1,3.1469327E-1,-7.017415E-1,9.3885E-2,-4.116793E-1,1.9037402E-1,-2.113651E-1,-2.3620289E-2,-1.3303596E-3,3.2514958E-3,-2.213686E-2,1.4668633E-1,-1.1774995E-1,-5.3682807E-3,3.0656764E-2,-3.6266097E-3,3.83542E-2,-1.5216187E-1,-3.670941E-1,-1.1091248E-1,-7.5898014E-2,2.3406349E-1,3.3348195E-2,-4.1820664E-2,-1.6823976E-1,1.0804194E-1,8.174472E-2,-1.9213812E-1,2.8663474E-1,9.828775E-3,-2.4333327E-1,1.3566432E-3,6.5889984E-2,3.071888E-1,-8.337376E-2,1.8258207E-1,-2.875565E-1,-4.767246E-2,-4.281466E-2,-1.4944047E-1,1.8384196E-1,-8.1360415E-2],"categories":[],"categories_nodes":[],"categories_segments":[],"categories_sizes":[],"default_left":[0,0,0,0,0,0,0,0,0,0,0,0,0,0,0,0,0,0,0,0,0,0,0,0,0,0,0,0,0,0,0,0,0,0,0,0,0,0,0,0,0,0,0,0,0,0,0,0,0,0,0,0,0,0,0,0,0,0,0,0,0,0,0,0,0,0,0,0,0,0,0,0,0,0,0,0,0,0,0,0,0,0,0,0,0,0,0,0,0],"id":16,"left_children":[1,3,5,7,9,11,13,15,17,19,21,23,25,27,29,31,33,35,37,39,-1,-1,41,43,45,-1,47,49,-1,51,53,55,57,59,61,63,-1,65,67,-1,-1,69,71,73,75,77,-1,79,81,83,-1,85,87,-1,-1,-1,-1,-1,-1,-1,-1,-1,-1,-1,-1,-1,-1,-1,-1,-1,-1,-1,-1,-1,-1,-1,-1,-1,-1,-1,-1,-1,-1,-1,-1,-1,-1,-1,-1],"loss_changes":[5.447265E-1,5.731933E-1,1.9516549E0,1.2119443E0,2.1182752E0,2.9289224E0,1.0772958E0,4.3666175E-1,3.9726653E0,9.007871E-2,4.042226E0,2.5994282E0,1.0519598E0,1.16000175E-1,7.725328E-1,1.1608528E0,5.1005063E0,4.2665467E0,2.981461E0,5.507525E-1,0E0,0E0,2.0228012E0,2.0217938E0,1.0931871E0,0E0,5.029261E-1,1.7073137E0,0E0,8.9316E-1,3.8815916E-1,8.077119E-1,4.9906235E0,6.776637E0,3.1038325E0,4.1797895E0,0E0,1.4550829E0,4.1145153E0,0E0,0E0,3.332553E0,5.108138E0,2.1124578E0,1.544064E0,1.4094547E0,0E0,2.2612238E-1,2.2950096E0,5.172856E-1,0E0,9.062588E-3,1.8537636E0,0E0,0E0,0E0,0E0,0E0,0E0,0E0,0E0,0E0,0E0,0E0,0E0,0E0,0E0,0E0,0E0,0E0,0E0,0E0,0E0,0E0,0E0,0E0,0E0,0E0,0E0,0E0,0E0,0E0,0E0,0E0,0E0,0E0,0E0,0E0,0E0],"parents":[2147483647,0,0,1,1,2,2,3,3,4,4,5,5,6,6,7,7,8,8,9,9,10,10,11,11,12,12,13,13,14,14,15,15,16,16,17,17,18,18,19,19,22,22,23,23,24,24,26,26,27,27,29,